{"learner":{"attributes":{"scikit_learn":"{\"_estimator_type\": \"classifier\"}"},"feature_names":["Close","Volume","RVOL","Daily_Return","Moving_Lines_Count","Energy_Delta"],"feature_types":["float","int","float","float","float","float"],"gradient_booster":{"model":{"cats":{"enc":[],"feature_segments":[],"sorted_idx":[]},"gbtree_model_param":{"num_parallel_tree":"1","num_trees":"100"},"iteration_indptr":[0,1,2,3,4,5,6,7,8,9,10,11,12,13,14,15,16,17,18,19,20,21,22,23,24,25,26,27,28,29,30,31,32,33,34,35,36,37,38,39,40,41,42,43,44,45,46,47,48,49,50,51,52,53,54,55,56,57,58,59,60,61,62,63,64,65,66,67,68,69,70,71,72,73,74,75,76,77,78,79,80,81,82,83,84,85,86,87,88,89,90,91,92,93,94,95,96,97,98,99,100],"tree_info":[0,0,0,0,0,0,0,0,0,0,0,0,0,0,0,0,0,0,0,0,0,0,0,0,0,0,0,0,0,0,0,0,0,0,0,0,0,0,0,0,0,0,0,0,0,0,0,0,0,0,0,0,0,0,0,0,0,0,0,0,0,0,0,0,0,0,0,0,0,0,0,0,0,0,0,0,0,0,0,0,0,0,0,0,0,0,0,0,0,0,0,0,0,0,0,0,0,0,0,0],"trees":[{"base_weights":[-1.7136151E-3,-1.1570406E-1,3.953588E-1,5.096214E-1,-1.5056318E-1,5.041839E-1,6.1322574E-2,-1.1234109E-2,4.8187096E-2,-1.3381325E-2,4.5707333E-3,6.645744E-3,4.2909104E-2,3.2599144E-2,-1.5634283E-2],"categories":[],"categories_nodes":[],"categories_segments":[],"categories_sizes":[],"default_left":[0,0,0,0,0,0,0,0,0,0,0,0,0,0,0],"id":0,"left_children":[1,3,5,7,9,11,13,-1,-1,-1,-1,-1,-1,-1,-1],"loss_changes":[1.2765231E1,4.852961E0,2.2558079E0,4.1505713E0,5.925286E0,6.1037493E0,3.870217E0,0E0,0E0,0E0,0E0,0E0,0E0,0E0,0E0],"parents":[2147483647,0,0,1,1,2,2,3,3,4,4,5,5,6,6],"right_children":[2,4,6,8,10,12,14,-1,-1,-1,-1,-1,-1,-1,-1],"split_conditions":[1.2227472E0,-2.0286568E-2,1.8768176E0,8.888621E-1,7.1303993E-3,-1.7183769E-3,-1.7123444E-2,-1.1234109E-2,4.8187096E-2,-1.3381325E-2,4.5707333E-3,6.645744E-3,4.2909104E-2,3.2599144E-2,-1.5634283E-2],"split_indices":[2,3,2,2,3,3,3,0,0,0,0,0,0,0,0],"split_type":[0,0,0,0,0,0,0,0,0,0,0,0,0,0,0],"sum_hessian":[2.8001624E2,2.1811034E2,6.1905903E1,1.0797542E1,2.0731279E2,4.6309456E1,1.5596449E1,4.3190165E0,6.4785247E0,1.3964821E2,6.76646E1,2.32747E1,2.3034756E1,5.758689E0,9.83776E0],"tree_param":{"num_deleted":"0","num_feature":"6","num_nodes":"15","size_leaf_vector":"1"}},{"base_weights":[-4.3251235E-2,-2.2278664E-1,2.62515E-1,-6.595598E-3,-8.370501E-1,6.060756E-1,-5.7200952E-3,1.854959E-2,-6.856322E-3,-4.5943808E-2,4.0698987E-2,1.684864E-2,5.404179E-2,-9.789031E-3,1.9778484E-2],"categories":[],"categories_nodes":[],"categories_segments":[],"categories_sizes":[],"default_left":[0,0,0,0,0,0,0,0,0,0,0,0,0,0,0],"id":1,"left_children":[1,3,5,7,9,11,13,-1,-1,-1,-1,-1,-1,-1,-1],"loss_changes":[1.5272042E1,2.3254208E1,9.493959E0,6.485858E0,6.90687E0,5.405596E0,4.563794E0,0E0,0E0,0E0,0E0,0E0,0E0,0E0,0E0],"parents":[2147483647,0,0,1,1,2,2,3,3,4,4,5,5,6,6],"right_children":[2,4,6,8,10,12,14,-1,-1,-1,-1,-1,-1,-1,-1],"split_conditions":[5.694669E2,5.4113654E2,9.426315E2,2.2645714E7,4E0,8.505455E2,1.1713942E3,1.854959E-2,-6.856322E-3,-4.5943808E-2,4.0698987E-2,1.684864E-2,5.404179E-2,-9.789031E-3,1.9778484E-2],"split_indices":[0,0,0,1,4,0,0,0,0,0,0,0,0,0,0],"split_type":[0,0,0,0,0,0,0,0,0,0,0,0,0,0,0],"sum_hessian":[2.761349E2,1.7415088E2,1.0198401E2,1.2956204E2,4.4588837E1,4.4161556E1,5.782245E1,3.2810043E1,9.6752E1,4.290585E1,1.6829858E0,2.9276737E1,1.4884818E1,3.958579E1,1.8236664E1],"tree_param":{"num_deleted":"0","num_feature":"6","num_nodes":"15","size_leaf_vector":"1"}},{"base_weights":[2.572816E-2,-1.5039104E-1,3.2331887E-1,6.15847E-2,-7.6963556E-1,1.2178104E0,1.8911569E-1,-5.2131335E-3,2.005225E-2,-5.0454326E-2,-3.4029414E-3,7.24604E-2,-4.718366E-3,2.4625754E-2,-3.0246703E-3],"categories":[],"categories_nodes":[],"categories_segments":[],"categories_sizes":[],"default_left":[0,0,0,0,0,0,0,0,0,0,0,0,0,0,0],"id":2,"left_children":[1,3,5,7,9,11,13,-1,-1,-1,-1,-1,-1,-1,-1],"loss_changes":[1.4586729E1,2.3010717E1,1.2187644E1,7.4311347E0,7.438364E0,4.1786194E0,6.931464E0,0E0,0E0,0E0,0E0,0E0,0E0,0E0,0E0],"parents":[2147483647,0,0,1,1,2,2,3,3,4,4,5,5,6,6],"right_children":[2,4,6,8,10,12,14,-1,-1,-1,-1,-1,-1,-1,-1],"split_conditions":[5.663097E2,5.417561E2,-1.8518507E-2,6.968793E-3,2.9415526E7,1.1366494E3,9.4653467E2,-5.2131335E-3,2.005225E-2,-5.0454326E-2,-3.4029414E-3,7.24604E-2,-4.718366E-3,2.4625754E-2,-3.0246703E-3],"split_indices":[0,0,3,3,1,0,0,0,0,0,0,0,0,0,0],"split_type":[0,0,0,0,0,0,0,0,0,0,0,0,0,0,0],"sum_hessian":[2.7638422E2,1.7393889E2,1.0244533E2,1.3025232E2,4.3686573E1,1.2311603E1,9.013372E1,8.796757E1,4.2284744E1,3.2243443E1,1.14431305E1,1.0377195E1,1.9344077E0,4.0244034E1,4.988969E1],"tree_param":{"num_deleted":"0","num_feature":"6","num_nodes":"15","size_leaf_vector":"1"}},{"base_weights":[-3.101217E-3,-1.3377805E-1,4.8874107E-1,-3.0474883E-1,1.6582824E-1,-4.343088E-1,6.4894134E-1,-5.003141E-3,-4.3071263E-2,2.026074E-2,-9.766001E-4,-5.4602344E-2,-6.029013E-3,5.2470844E-2,1.2242565E-2],"categories":[],"categories_nodes":[],"categories_segments":[],"categories_sizes":[],"default_left":[0,0,0,0,0,0,0,0,0,0,0,0,0,0,0],"id":3,"left_children":[1,3,5,7,9,11,13,-1,-1,-1,-1,-1,-1,-1,-1],"loss_changes":[1.8251633E1,1.1542315E1,9.096825E0,1.6229128E1,3.6534288E0,1.8111149E0,8.028154E0,0E0,0E0,0E0,0E0,0E0,0E0,0E0,0E0],"parents":[2147483647,0,0,1,1,2,2,3,3,4,4,5,5,6,6],"right_children":[2,4,6,8,10,12,14,-1,-1,-1,-1,-1,-1,-1,-1],"split_conditions":[1.2227472E0,5.694669E2,3.734313E7,5.417561E2,9.426315E2,3.1329096E7,1.582834E0,-5.003141E-3,-4.3071263E-2,2.026074E-2,-9.766001E-4,-5.4602344E-2,-6.029013E-3,5.2470844E-2,1.2242565E-2],"split_indices":[2,0,1,0,0,1,2,0,0,0,0,0,0,0,0],"split_type":[0,0,0,0,0,0,0,0,0,0,0,0,0,0,0],"sum_hessian":[2.8195587E2,2.2334396E2,5.861191E1,1.4218736E2,8.11566E1,8.414988E0,5.0196926E1,1.0482404E2,3.736332E1,3.4899273E1,4.625733E1,1.9163846E0,6.4986033E0,2.4409138E1,2.5787788E1],"tree_param":{"num_deleted":"0","num_feature":"6","num_nodes":"15","size_leaf_vector":"1"}},{"base_weights":[1.5507722E-2,-2.370605E-2,1.0768154E0,-1.4567593E-1,1.7503677E-1,1.3697256E0,2.7166635E-1,2.3621E-3,-3.8483355E-2,2.0771239E-2,-1.2602462E-2,1.2375056E-2,8.723986E-2,-2.3530075E-2,3.8912542E-2],"categories":[],"categories_nodes":[],"categories_segments":[],"categories_sizes":[],"default_left":[0,0,0,0,0,0,0,0,0,0,0,0,0,0,0],"id":4,"left_children":[1,3,5,7,9,11,13,-1,-1,-1,-1,-1,-1,-1,-1],"loss_changes":[1.1636855E1,6.5713367E0,1.9774866E0,2.0246145E1,1.0694862E1,2.5388908E0,1.8346143E0,0E0,0E0,0E0,0E0,0E0,0E0,0E0,0E0],"parents":[2147483647,0,0,1,1,2,2,3,3,4,4,5,5,6,6],"right_children":[2,4,6,8,10,12,14,-1,-1,-1,-1,-1,-1,-1,-1],"split_conditions":[8.713974E7,5.6568524E2,1.6949141E-2,5.417561E2,1.0438711E3,1.9995241E0,4.5364767E2,2.3621E-3,-3.8483355E-2,2.0771239E-2,-1.2602462E-2,1.2375056E-2,8.723986E-2,-2.3530075E-2,3.8912542E-2],"split_indices":[1,0,3,0,0,2,0,0,0,0,0,0,0,0,0],"split_type":[0,0,0,0,0,0,0,0,0,0,0,0,0,0,0],"sum_hessian":[2.7799854E2,2.6903574E2,8.962815E0,1.6688454E2,1.021512E2,6.057802E0,2.905013E0,1.2817978E2,3.8704758E1,6.537934E1,3.677186E1,1.9332728E0,4.1245294E0,1.2072024E0,1.6978108E0],"tree_param":{"num_deleted":"0","num_feature":"6","num_nodes":"15","size_leaf_vector":"1"}},{"base_weights":[-2.2231821E-2,-2.0226564E-1,2.6815465E-1,-3.0803664E-2,-7.858035E-1,5.5181277E-1,5.7313954E-3,-2.9544334E-3,6.4952396E-2,-4.1700747E-2,2.1017864E-2,8.675346E-3,3.846961E-2,-4.875242E-3,5.827952E-2],"categories":[],"categories_nodes":[],"categories_segments":[],"categories_sizes":[],"default_left":[0,0,0,0,0,0,0,0,0,0,0,0,0,0,0],"id":5,"left_children":[1,3,5,7,9,11,13,-1,-1,-1,-1,-1,-1,-1,-1],"loss_changes":[1.5031399E1,1.7726837E1,8.190243E0,5.2737575E0,2.691164E0,4.2194824E0,7.0807304E0,0E0,0E0,0E0,0E0,0E0,0E0,0E0,0E0],"parents":[2147483647,0,0,1,1,2,2,3,3,4,4,5,5,6,6],"right_children":[2,4,6,8,10,12,14,-1,-1,-1,-1,-1,-1,-1,-1],"split_conditions":[5.649541E2,5.417561E2,9.52716E2,4E0,5E0,6.666309E2,1E0,-2.9544334E-3,6.4952396E-2,-4.1700747E-2,2.1017864E-2,8.675346E-3,3.846961E-2,-4.875242E-3,5.827952E-2],"split_indices":[0,0,0,5,4,0,5,0,0,0,0,0,0,0,0],"split_type":[0,0,0,0,0,0,0,0,0,0,0,0,0,0,0],"sum_hessian":[2.8548312E2,1.7641365E2,1.0906949E2,1.3716345E2,3.92502E1,5.188417E1,5.7185318E1,1.3524251E2,1.9209454E0,3.8038307E1,1.2118905E0,1.960111E1,3.2283062E1,5.3352478E1,3.8328402E0],"tree_param":{"num_deleted":"0","num_feature":"6","num_nodes":"15","size_leaf_vector":"1"}},{"base_weights":[1.0767283E-2,-2.9188357E-2,1.2017626E0,-1.7321058E-1,2.0766358E-1,2.200859E-1,7.649892E-2,2.9482956E-3,-2.6589526E-2,1.9100651E-2,-3.4548666E-3,2.0899078E-2,-3.767451E-3],"categories":[],"categories_nodes":[],"categories_segments":[],"categories_sizes":[],"default_left":[0,0,0,0,0,0,0,0,0,0,0,0,0],"id":6,"left_children":[1,3,5,7,9,11,-1,-1,-1,-1,-1,-1,-1],"loss_changes":[1.3287443E1,9.260659E0,2.5834446E0,1.4077295E1,4.9825606E0,2.3255372E-1,0E0,0E0,0E0,0E0,0E0,0E0,0E0],"parents":[2147483647,0,0,1,1,2,2,3,3,4,4,5,5],"right_children":[2,4,6,8,10,12,-1,-1,-1,-1,-1,-1,-1],"split_conditions":[8.713974E7,5.663097E2,3E0,5.223955E2,1.0291686E3,1.129453E8,7.649892E-2,2.9482956E-3,-2.6589526E-2,1.9100651E-2,-3.4548666E-3,2.0899078E-2,-3.767451E-3],"split_indices":[1,0,4,0,0,1,0,0,0,0,0,0,0],"split_type":[0,0,0,0,0,0,0,0,0,0,0,0,0],"sum_hessian":[2.774872E2,2.6942404E2,8.063175E0,1.6771222E2,1.0171183E2,2.4389503E0,5.6242247E0,1.0230587E2,6.540635E1,6.2167953E1,3.9543877E1,1.212178E0,1.2267722E0],"tree_param":{"num_deleted":"0","num_feature":"6","num_nodes":"13","size_leaf_vector":"1"}},{"base_weights":[1.2309675E-2,-5.4771967E-2,6.6862196E-1,-2.1429412E-1,2.0347206E-1,1.5359594E0,3.702799E-1,-1.5905192E-3,-3.8084384E-2,4.797165E-2,6.577942E-3,8.7032884E-2,1.8743625E-2,-1.8787462E-2,3.346424E-2],"categories":[],"categories_nodes":[],"categories_segments":[],"categories_sizes":[],"default_left":[0,0,0,0,0,0,0,0,0,0,0,0,0,0,0],"id":7,"left_children":[1,3,5,7,9,11,13,-1,-1,-1,-1,-1,-1,-1,-1],"loss_changes":[1.2376012E1,1.055698E1,6.1761465E0,1.578281E1,5.1993566E0,8.575506E-1,4.871689E0,0E0,0E0,0E0,0E0,0E0,0E0,0E0,0E0],"parents":[2147483647,0,0,1,1,2,2,3,3,4,4,5,5,6,6],"right_children":[2,4,6,8,10,12,14,-1,-1,-1,-1,-1,-1,-1,-1],"split_conditions":[6.2526056E7,5.663097E2,3.7450668E2,5.4113654E2,-2.0286568E-2,1.19895176E8,5.341896E2,-1.5905192E-3,-3.8084384E-2,4.797165E-2,6.577942E-3,8.7032884E-2,1.8743625E-2,-1.8787462E-2,3.346424E-2],"split_indices":[1,0,0,0,3,1,0,0,0,0,0,0,0,0,0],"split_type":[0,0,0,0,0,0,0,0,0,0,0,0,0,0,0],"sum_hessian":[2.7927185E2,2.5420602E2,2.5065838E1,1.5724379E2,9.6962234E1,5.3535957E0,1.9712242E1,1.187233E2,3.852049E1,7.35057E0,8.9611664E1,4.1268706E0,1.2267252E0,5.5666256E0,1.4145617E1],"tree_param":{"num_deleted":"0","num_feature":"6","num_nodes":"15","size_leaf_vector":"1"}},{"base_weights":[2.4052547E-2,-4.387796E-2,4.550728E-1,-6.0947414E-2,5.8464754E-2,6.6990197E-1,-2.7427701E-2,-3.8198743E-3,4.779924E-2,-1.2446818E-3,4.130002E-2,-3.1794477E-2,3.330841E-2],"categories":[],"categories_nodes":[],"categories_segments":[],"categories_sizes":[],"default_left":[0,0,0,0,0,0,0,0,0,0,0,0,0],"id":8,"left_children":[1,3,5,7,-1,9,11,-1,-1,-1,-1,-1,-1],"loss_changes":[8.182101E0,5.0769725E0,3.9615335E0,3.833188E0,0E0,2.8795824E0,5.7749715E0,0E0,0E0,0E0,0E0,0E0,0E0],"parents":[2147483647,0,0,1,1,2,2,3,3,5,5,6,6],"right_children":[2,4,6,8,-1,10,12,-1,-1,-1,-1,-1,-1],"split_conditions":[5.385099E7,1.51E3,1.9755263E0,5E0,5.8464754E-2,1.2227472E0,8.713974E7,-3.8198743E-3,4.779924E-2,-1.2446818E-3,4.130002E-2,-3.1794477E-2,3.330841E-2],"split_indices":[1,0,2,4,0,2,1,0,0,0,0,0,0],"split_type":[0,0,0,0,0,0,0,0,0,0,0,0,0],"sum_hessian":[2.777669E2,2.4072577E2,3.7041138E1,2.3832231E2,2.4034553E0,2.5360985E1,1.1680154E1,2.3566675E2,2.6555676E0,4.806726E0,2.0554258E1,6.266245E0,5.413909E0],"tree_param":{"num_deleted":"0","num_feature":"6","num_nodes":"13","size_leaf_vector":"1"}},{"base_weights":[-4.1687537E-2,-2.0520003E-1,2.1666081E-1,1.2456676E-1,-3.8449228E-1,3.8110757E-1,-9.630558E-2,-1.2178122E-2,1.8296411E-2,-1.2221386E-2,-3.2065403E-2,4.5014083E-2,1.3188048E-2,-2.7928114E-2,2.1427196E-2],"categories":[],"categories_nodes":[],"categories_segments":[],"categories_sizes":[],"default_left":[0,0,0,0,0,0,0,0,0,0,0,0,0,0,0],"id":9,"left_children":[1,3,5,7,9,11,13,-1,-1,-1,-1,-1,-1,-1,-1],"loss_changes":[1.1746557E1,1.0108517E1,5.5877485E0,5.481216E0,3.8170662E0,4.082464E0,9.446692E0,0E0,0E0,0E0,0E0,0E0,0E0,0E0,0E0],"parents":[2147483647,0,0,1,1,2,2,3,3,4,4,5,5,6,6],"right_children":[2,4,6,8,10,12,14,-1,-1,-1,-1,-1,-1,-1,-1],"split_conditions":[5.649541E2,4.5364767E2,1.0438711E3,3.0123676E2,5.4113654E2,-1.5503972E-2,1.1912483E3,-1.2178122E-2,1.8296411E-2,-1.2221386E-2,-3.2065403E-2,4.5014083E-2,1.3188048E-2,-2.7928114E-2,2.1427196E-2],"split_indices":[0,0,0,0,0,3,0,0,0,0,0,0,0,0,0],"split_type":[0,0,0,0,0,0,0,0,0,0,0,0,0,0,0],"sum_hessian":[2.7601743E2,1.6915956E2,1.06857864E2,5.9686047E1,1.0947351E2,6.990755E1,3.695032E1,2.3632374E1,3.6053673E1,7.210175E1,3.737176E1,1.1657873E1,5.8249672E1,1.9612526E1,1.7337797E1],"tree_param":{"num_deleted":"0","num_feature":"6","num_nodes":"15","size_leaf_vector":"1"}},{"base_weights":[-3.3108994E-2,-1.730369E-1,2.1182105E-1,-9.097274E-3,-7.1508515E-1,5.002012E-1,-2.3040572E-2,-6.463242E-3,1.9860312E-2,-4.061946E-2,3.0952616E-2,1.4489772E-2,3.6095142E-2,3.528775E-2,-7.2775716E-3],"categories":[],"categories_nodes":[],"categories_segments":[],"categories_sizes":[],"default_left":[0,0,0,0,0,0,0,0,0,0,0,0,0,0,0],"id":10,"left_children":[1,3,5,7,9,11,13,-1,-1,-1,-1,-1,-1,-1,-1],"loss_changes":[9.558932E0,1.5755362E1,6.8838634E0,6.749921E0,5.8481617E0,1.9173803E0,5.1811776E0,0E0,0E0,0E0,0E0,0E0,0E0,0E0,0E0],"parents":[2147483647,0,0,1,1,2,2,3,3,4,4,5,5,6,6],"right_children":[2,4,6,8,10,12,14,-1,-1,-1,-1,-1,-1,-1,-1],"split_conditions":[5.663097E2,5.417561E2,9.426315E2,4.611991E7,6.2526056E7,7.679211E2,-1.7777942E-2,-6.463242E-3,1.9860312E-2,-4.061946E-2,3.0952616E-2,1.4489772E-2,3.6095142E-2,3.528775E-2,-7.2775716E-3],"split_indices":[0,0,0,1,1,0,3,0,0,0,0,0,0,0,0],"split_type":[0,0,0,0,0,0,0,0,0,0,0,0,0,0,0],"sum_hessian":[2.768398E2,1.763723E2,1.00467514E2,1.36197E2,4.0175285E1,4.4588608E1,5.5878906E1,1.0563612E2,3.056089E1,3.780881E1,2.3664744E0,2.406083E1,2.052778E1,7.3563747E0,4.8522533E1],"tree_param":{"num_deleted":"0","num_feature":"6","num_nodes":"15","size_leaf_vector":"1"}},{"base_weights":[-1.430012E-2,3.9708993E-1,-5.741145E-2,7.682728E-1,1.6928177E-1,-7.335266E-2,5.5969067E-2,-1.1105707E-2,4.8430096E-2,-2.6591564E-2,2.5903424E-2,-6.8328097E-3,1.1254869E-2],"categories":[],"categories_nodes":[],"categories_segments":[],"categories_sizes":[],"default_left":[0,0,0,0,0,0,0,0,0,0,0,0,0],"id":11,"left_children":[1,3,5,7,9,11,-1,-1,-1,-1,-1,-1,-1],"loss_changes":[4.942348E0,2.1054401E0,4.808489E0,2.1539378E0,4.5953684E0,4.744874E0,0E0,0E0,0E0,0E0,0E0,0E0,0E0],"parents":[2147483647,0,0,1,1,2,2,3,3,4,4,5,5],"right_children":[2,4,6,8,10,12,-1,-1,-1,-1,-1,-1,-1],"split_conditions":[-2.0286568E-2,1.1735686E0,4E0,-3.3167683E-2,2E0,1.2298027E0,5.5969067E-2,-1.1105707E-2,4.8430096E-2,-2.6591564E-2,2.5903424E-2,-6.8328097E-3,1.1254869E-2],"split_indices":[3,2,5,3,4,2,0,0,0,0,0,0,0],"split_type":[0,0,0,0,0,0,0,0,0,0,0,0,0],"sum_hessian":[2.763832E2,2.543726E1,2.5094595E2,8.772002E0,1.6665257E1,2.4851714E2,2.428824E0,1.4575282E0,7.3144746E0,5.3620133E0,1.1303244E1,2.0547618E2,4.3040955E1],"tree_param":{"num_deleted":"0","num_feature":"6","num_nodes":"13","size_leaf_vector":"1"}},{"base_weights":[6.258259E-2,6.493717E-1,5.53266E-4,1.0633378E0,4.9183947E-1,-1.5706706E-1,2.561612E-1,6.926534E-2,1.9420555E-2,-2.4913145E-2,3.3197664E-2,-5.2512786E-3,-3.9939888E-2,5.7972677E-2,9.732521E-3],"categories":[],"categories_nodes":[],"categories_segments":[],"categories_sizes":[],"default_left":[0,0,0,0,0,0,0,0,0,0,0,0,0,0,0],"id":12,"left_children":[1,3,5,7,9,11,13,-1,-1,-1,-1,-1,-1,-1,-1],"loss_changes":[1.0073458E1,1.2024841E0,1.0165196E1,8.5980844E-1,3.9139228E0,5.128319E0,5.1215224E0,0E0,0E0,0E0,0E0,0E0,0E0,0E0,0E0],"parents":[2147483647,0,0,1,1,2,2,3,3,4,4,5,5,6,6],"right_children":[2,4,6,8,10,12,14,-1,-1,-1,-1,-1,-1,-1,-1],"split_conditions":[-2.0286568E-2,-3.514053E-2,6.8492815E-3,1.837545E0,-3.0741211E-2,5.145989E-3,5.7727957E-1,6.926534E-2,1.9420555E-2,-2.4913145E-2,3.3197664E-2,-5.2512786E-3,-3.9939888E-2,5.7972677E-2,9.732521E-3],"split_indices":[3,3,3,2,3,3,2,0,0,0,0,0,0,0,0],"split_type":[0,0,0,0,0,0,0,0,0,0,0,0,0,0,0],"sum_hessian":[2.757674E2,2.5459084E1,2.503083E2,5.432772E0,2.0026312E1,1.5507005E2,9.523825E1,2.9655492E0,2.467223E0,2.6850898E0,1.734122E1,1.4451425E2,1.0555801E1,4.933894E0,9.030435E1],"tree_param":{"num_deleted":"0","num_feature":"6","num_nodes":"15","size_leaf_vector":"1"}},{"base_weights":[-2.0108204E-2,-1.7117715E-1,2.0844175E-1,5.4775774E-2,-5.223061E-1,3.9260453E-1,1.1785822E-2,-6.1461846E-3,2.1002732E-2,-7.2917626E-3,-3.334048E-2,-3.7411095E-3,2.7686406E-2,2.9457211E-2,-5.000207E-3],"categories":[],"categories_nodes":[],"categories_segments":[],"categories_sizes":[],"default_left":[0,0,0,0,0,0,0,0,0,0,0,0,0,0,0],"id":13,"left_children":[1,3,5,7,9,11,13,-1,-1,-1,-1,-1,-1,-1,-1],"loss_changes":[9.732043E0,1.3486544E1,4.0592217E0,6.8097506E0,3.5210552E0,4.4031534E0,3.6278152E0,0E0,0E0,0E0,0E0,0E0,0E0,0E0,0E0],"parents":[2147483647,0,0,1,1,2,2,3,3,4,4,5,5,6,6],"right_children":[2,4,6,8,10,12,14,-1,-1,-1,-1,-1,-1,-1,-1],"split_conditions":[5.663097E2,5.178269E2,9.815928E2,1.0834835E0,1E0,1E0,-1.4705837E-2,-6.1461846E-3,2.1002732E-2,-7.2917626E-3,-3.334048E-2,-3.7411095E-3,2.7686406E-2,2.9457211E-2,-5.000207E-3],"split_indices":[0,0,0,2,4,4,3,0,0,0,0,0,0,0,0],"split_type":[0,0,0,0,0,0,0,0,0,0,0,0,0,0,0],"sum_hessian":[2.7983582E2,1.6862657E2,1.1120924E2,1.03115395E2,6.5511185E1,5.691424E1,5.4295002E1,6.981536E1,3.330003E1,1.8728237E1,4.6782944E1,1.4726789E1,4.218745E1,8.114772E0,4.618023E1],"tree_param":{"num_deleted":"0","num_feature":"6","num_nodes":"15","size_leaf_vector":"1"}},{"base_weights":[6.898272E-2,4.3275576E-2,8.0781823E-1,-5.5250388E-2,2.360433E-1,6.6807675E-3,1.1427791E0,1.4099428E-2,-5.5850362E-3,5.0993156E-2,9.172244E-3,-2.7198723E-2,2.4917198E-2,7.2325416E-2,3.7355386E-3],"categories":[],"categories_nodes":[],"categories_segments":[],"categories_sizes":[],"default_left":[0,0,0,0,0,0,0,0,0,0,0,0,0,0,0],"id":14,"left_children":[1,3,5,7,9,11,13,-1,-1,-1,-1,-1,-1,-1,-1],"loss_changes":[5.187962E0,5.0802207E0,2.458394E0,3.408081E0,3.5411334E0,1.2769535E0,1.9922218E0,0E0,0E0,0E0,0E0,0E0,0E0,0E0,0E0],"parents":[2147483647,0,0,1,1,2,2,3,3,4,4,5,5,6,6],"right_children":[2,4,6,8,10,12,14,-1,-1,-1,-1,-1,-1,-1,-1],"split_conditions":[8.713974E7,6.8492815E-3,3E0,-2.0286568E-2,5.7727957E-1,1.9995241E0,2.712241E0,1.4099428E-2,-5.5850362E-3,5.0993156E-2,9.172244E-3,-2.7198723E-2,2.4917198E-2,7.2325416E-2,3.7355386E-3],"split_indices":[1,3,4,3,2,2,2,0,0,0,0,0,0,0,0],"split_type":[0,0,0,0,0,0,0,0,0,0,0,0,0,0,0],"sum_hessian":[2.7398682E2,2.6579718E2,8.1896105E0,1.7636714E2,8.9430046E1,2.7152936E0,5.474317E0,2.4716055E1,1.516511E2,4.467401E0,8.496264E1,1.2306207E0,1.4846729E0,3.986379E0,1.4879382E0],"tree_param":{"num_deleted":"0","num_feature":"6","num_nodes":"15","size_leaf_vector":"1"}},{"base_weights":[-2.8246243E-3,-1.4925939E-1,2.1833527E-1,-1.1201808E-2,-6.4266336E-1,1.3125375E-1,8.276364E-1,1.1190734E-2,-8.894406E-3,-3.584203E-2,4.1913953E-2,2.0761281E-2,-4.333621E-3,7.948979E-2,5.7120767E-4],"categories":[],"categories_nodes":[],"categories_segments":[],"categories_sizes":[],"default_left":[0,0,0,0,0,0,0,0,0,0,0,0,0,0,0],"id":15,"left_children":[1,3,5,7,9,11,13,-1,-1,-1,-1,-1,-1,-1,-1],"loss_changes":[9.03967E0,1.1431391E1,5.7914147E0,5.2196884E0,4.631998E0,6.1305013E0,8.514751E0,0E0,0E0,0E0,0E0,0E0,0E0,0E0,0E0],"parents":[2147483647,0,0,1,1,2,2,3,3,4,4,5,5,6,6],"right_children":[2,4,6,8,10,12,14,-1,-1,-1,-1,-1,-1,-1,-1],"split_conditions":[5.649541E2,5.417561E2,1E0,4.4893704E2,4E0,9.3908673E2,2E0,1.1190734E-2,-8.894406E-3,-3.584203E-2,4.1913953E-2,2.0761281E-2,-4.333621E-3,7.948979E-2,5.7120767E-4],"split_indices":[0,0,5,0,4,0,4,0,0,0,0,0,0,0,0],"split_type":[0,0,0,0,0,0,0,0,0,0,0,0,0,0,0],"sum_hessian":[2.7712082E2,1.6692276E2,1.10198074E2,1.3122723E2,3.5695515E1,9.7481415E1,1.27166605E1,5.4310444E1,7.6916794E1,3.448423E1,1.2112852E0,4.1933716E1,5.5547695E1,6.0859623E0,6.630698E0],"tree_param":{"num_deleted":"0","num_feature":"6","num_nodes":"15","size_leaf_vector":"1"}},{"base_weights":[-4.084394E-2,-1.53662E-1,1.4065352E-1,-3.568121E-2,-5.268448E-1,7.0835775E-1,1.396324E-2,1.3117737E-2,-8.112191E-3,-3.6773857E-2,1.6410565E-3,-3.3457056E-3,4.066007E-2,1.2411091E-2,-1.3478798E-2],"categories":[],"categories_nodes":[],"categories_segments":[],"categories_sizes":[],"default_left":[0,0,0,0,0,0,0,0,0,0,0,0,0,0,0],"id":16,"left_children":[1,3,5,7,9,11,13,-1,-1,-1,-1,-1,-1,-1,-1],"loss_changes":[5.6568365E0,7.4745064E0,7.615056E0,4.960669E0,4.7891483E0,1.6249685E0,5.891667E0,0E0,0E0,0E0,0E0,0E0,0E0,0E0,0E0],"parents":[2147483647,0,0,1,1,2,2,3,3,4,4,5,5,6,6],"right_children":[2,4,6,8,10,12,14,-1,-1,-1,-1,-1,-1,-1,-1],"split_conditions":[5.6755615E2,5.4113654E2,-1.446663E-2,2.3547404E7,6.8492815E-3,7.5237143E-1,1.0046645E3,1.3117737E-2,-8.112191E-3,-3.6773857E-2,1.6410565E-3,-3.3457056E-3,4.066007E-2,1.2411091E-2,-1.3478798E-2],"split_indices":[0,0,3,1,3,2,0,0,0,0,0,0,0,0,0],"split_type":[0,0,0,0,0,0,0,0,0,0,0,0,0,0,0],"sum_hessian":[2.7420856E2,1.6919254E2,1.0501601E2,1.293838E2,3.9808743E1,1.8322206E1,8.6693794E1,3.8246384E1,9.113741E1,2.8769796E1,1.1038944E1,2.2257261E0,1.6096481E1,4.754058E1,3.9153214E1],"tree_param":{"num_deleted":"0","num_feature":"6","num_nodes":"15","size_leaf_vector":"1"}},{"base_weights":[-1.4020771E-2,-9.184256E-2,4.3494928E-1,-2.0442925E-1,1.5080015E-1,7.461443E-1,-5.7383187E-2,-1.7815242E-2,6.3811354E-3,3.285723E-2,-2.245549E-3,4.80115E-2,-7.7216625E-3,-2.0465402E-2,2.5332535E-2],"categories":[],"categories_nodes":[],"categories_segments":[],"categories_sizes":[],"default_left":[0,0,0,0,0,0,0,0,0,0,0,0,0,0,0],"id":17,"left_children":[1,3,5,7,9,11,13,-1,-1,-1,-1,-1,-1,-1,-1],"loss_changes":[9.7058935E0,6.494459E0,6.331038E0,8.217201E0,7.517794E0,5.0105143E0,3.5468752E0,0E0,0E0,0E0,0E0,0E0,0E0,0E0,0E0],"parents":[2147483647,0,0,1,1,2,2,3,3,4,4,5,5,6,6],"right_children":[2,4,6,8,10,12,14,-1,-1,-1,-1,-1,-1,-1,-1],"split_conditions":[5.2318736E7,7.679211E2,1.7640032E0,7.1303993E-3,9.426315E2,8.9969586E2,6.0567633E2,-1.7815242E-2,6.3811354E-3,3.285723E-2,-2.245549E-3,4.80115E-2,-7.7216625E-3,-2.0465402E-2,2.5332535E-2],"split_indices":[1,0,2,3,0,0,0,0,0,0,0,0,0,0,0],"split_type":[0,0,0,0,0,0,0,0,0,0,0,0,0,0,0],"sum_hessian":[2.756469E2,2.3560413E2,4.0042778E1,1.6103914E2,7.456498E1,2.4218895E1,1.5823884E1,1.10448586E2,5.059056E1,2.0129124E1,5.443586E1,1.9513823E1,4.7050724E0,9.913036E0,5.9108477E0],"tree_param":{"num_deleted":"0","num_feature":"6","num_nodes":"15","size_leaf_vector":"1"}},{"base_weights":[3.167356E-3,-6.262551E-2,2.5294086E-1,-1.6478392E-1,9.7337596E-2,4.2809907E-1,-1.6840364E-1,-1.8286575E-3,-2.814765E-2,1.0659456E-2,-1.3940719E-2,1.24133555E-2,6.1113596E-2,4.365697E-2,-1.582407E-2],"categories":[],"categories_nodes":[],"categories_segments":[],"categories_sizes":[],"default_left":[0,0,0,0,0,0,0,0,0,0,0,0,0,0,0],"id":18,"left_children":[1,3,5,7,9,11,13,-1,-1,-1,-1,-1,-1,-1,-1],"loss_changes":[4.595063E0,3.6333985E0,4.37442E0,6.8945193E0,3.8463712E0,5.617752E0,3.027122E0,0E0,0E0,0E0,0E0,0E0,0E0,0E0,0E0],"parents":[2147483647,0,0,1,1,2,2,3,3,4,4,5,5,6,6],"right_children":[2,4,6,8,10,12,14,-1,-1,-1,-1,-1,-1,-1,-1],"split_conditions":[1.2707675E0,5.649541E2,1.8768176E0,5.4113654E2,1.037181E0,2.392346E-2,2.7240332E2,-1.8286575E-3,-2.814765E-2,1.0659456E-2,-1.3940719E-2,1.24133555E-2,6.1113596E-2,4.365697E-2,-1.582407E-2],"split_indices":[2,0,2,0,2,3,0,0,0,0,0,0,0,0,0],"split_type":[0,0,0,0,0,0,0,0,0,0,0,0,0,0,0],"sum_hessian":[2.7765482E2,2.2035924E2,5.7295586E1,1.3445874E2,8.5900505E1,4.0459877E1,1.6835709E1,1.02534424E2,3.1924318E1,6.600483E1,1.9895676E1,3.405997E1,6.399905E0,1.4861307E0,1.5349577E1],"tree_param":{"num_deleted":"0","num_feature":"6","num_nodes":"15","size_leaf_vector":"1"}},{"base_weights":[3.9925225E-2,-1.0963302E-2,6.052345E-1,-1.2805606E-1,2.4646474E-1,1.1227639E0,3.912869E-1,1.7598456E-3,-1.6073836E-2,2.6758863E-2,-1.3903715E-3,6.4138085E-2,1.3448462E-2,-2.8314669E-2,3.09008E-2],"categories":[],"categories_nodes":[],"categories_segments":[],"categories_sizes":[],"default_left":[0,0,0,0,0,0,0,0,0,0,0,0,0,0,0],"id":19,"left_children":[1,3,5,7,9,11,13,-1,-1,-1,-1,-1,-1,-1,-1],"loss_changes":[8.04553E0,7.788725E0,2.1178923E0,5.6175785E0,6.4131155E0,5.046835E-1,4.2308855E0,0E0,0E0,0E0,0E0,0E0,0E0,0E0,0E0],"parents":[2147483647,0,0,1,1,2,2,3,3,4,4,5,5,6,6],"right_children":[2,4,6,8,10,12,14,-1,-1,-1,-1,-1,-1,-1,-1],"split_conditions":[6.5168776E7,7.776416E2,3.7450668E2,5.223955E2,1.0291686E3,1.19895176E8,4.9540674E2,1.7598456E-3,-1.6073836E-2,2.6758863E-2,-1.3903715E-3,6.4138085E-2,1.3448462E-2,-2.8314669E-2,3.09008E-2],"split_indices":[1,0,0,0,0,1,0,0,0,0,0,0,0,0,0],"split_type":[0,0,0,0,0,0,0,0,0,0,0,0,0,0,0],"sum_hessian":[2.7844113E2,2.5634576E2,2.209536E1,1.765455E2,7.980027E1,5.2201686E0,1.687519E1,9.618252E1,8.036298E1,3.8413284E1,4.1386986E1,3.9731853E0,1.2469835E0,2.9439375E0,1.3931253E1],"tree_param":{"num_deleted":"0","num_feature":"6","num_nodes":"15","size_leaf_vector":"1"}},{"base_weights":[1.4906836E-2,-8.887304E-2,1.8324357E-1,2.4701154E-2,-4.565313E-1,6.2257993E-1,1.1986229E-1,-7.4715675E-3,1.1026091E-2,-6.1167803E-2,-1.3890281E-2,3.979608E-2,-1.2451916E-2,1.6692748E-2,-2.1133234E-3],"categories":[],"categories_nodes":[],"categories_segments":[],"categories_sizes":[],"default_left":[0,0,0,0,0,0,0,0,0,0,0,0,0,0,0],"id":20,"left_children":[1,3,5,7,9,11,13,-1,-1,-1,-1,-1,-1,-1,-1],"loss_changes":[4.963558E0,7.354518E0,2.941862E0,4.6466312E0,5.355337E0,2.2257147E0,3.3416219E0,0E0,0E0,0E0,0E0,0E0,0E0,0E0,0E0],"parents":[2147483647,0,0,1,1,2,2,3,3,4,4,5,5,6,6],"right_children":[2,4,6,8,10,12,14,-1,-1,-1,-1,-1,-1,-1,-1],"split_conditions":[5.694669E2,5.417561E2,-2.0286568E-2,9.408864E-1,5.463305E2,1.1366494E3,9.4653467E2,-7.4715675E-3,1.1026091E-2,-6.1167803E-2,-1.3890281E-2,3.979608E-2,-1.2451916E-2,1.6692748E-2,-2.1133234E-3],"split_indices":[0,0,3,2,0,0,0,0,0,0,0,0,0,0,0],"split_type":[0,0,0,0,0,0,0,0,0,0,0,0,0,0,0],"sum_hessian":[2.8218732E2,1.7485869E2,1.0732862E2,1.3430348E2,4.05552E1,1.2419351E1,9.490927E1,7.1213844E1,6.3089645E1,6.5608606E0,3.399434E1,1.0431624E1,1.9877262E0,4.045448E1,5.4454792E1],"tree_param":{"num_deleted":"0","num_feature":"6","num_nodes":"15","size_leaf_vector":"1"}},{"base_weights":[-6.2293625E-3,-4.664449E-2,5.85E-1,-1.2777387E-1,2.3176573E-1,8.5785E-1,-3.2057786E-1,-3.4499943E-2,-3.953331E-3,4.9137186E-2,3.939818E-3,-1.5856443E-2,5.530582E-2,-3.2981187E-2,1.8894961E-2],"categories":[],"categories_nodes":[],"categories_segments":[],"categories_sizes":[],"default_left":[0,0,0,0,0,0,0,0,0,0,0,0,0,0,0],"id":21,"left_children":[1,3,5,7,9,11,13,-1,-1,-1,-1,-1,-1,-1,-1],"loss_changes":[6.6740355E0,5.931597E0,4.691003E0,5.5039525E0,6.7366486E0,4.436494E0,1.4016291E0,0E0,0E0,0E0,0E0,0E0,0E0,0E0,0E0],"parents":[2147483647,0,0,1,1,2,2,3,3,4,4,5,5,6,6],"right_children":[2,4,6,8,10,12,14,-1,-1,-1,-1,-1,-1,-1,-1],"split_conditions":[1.1912483E3,1.2227472E0,1.7216831E-2,3.0123676E2,3.7450668E2,-1.5503972E-2,1.20133E0,-3.4499943E-2,-3.953331E-3,4.9137186E-2,3.939818E-3,-1.5856443E-2,5.530582E-2,-3.2981187E-2,1.8894961E-2],"split_indices":[0,2,3,0,0,3,2,0,0,0,0,0,0,0,0],"split_type":[0,0,0,0,0,0,0,0,0,0,0,0,0,0,0],"sum_hessian":[2.771694E2,2.6029715E2,1.687223E1,2.019806E2,5.831655E1,1.3006181E1,3.8660507E0,1.5053432E1,1.8692717E2,8.950601E0,4.9365948E1,2.220373E0,1.0785808E1,2.6401353E0,1.2259154E0],"tree_param":{"num_deleted":"0","num_feature":"6","num_nodes":"15","size_leaf_vector":"1"}},{"base_weights":[4.1976087E-3,-1.1033933E-2,6.4580515E-2,-1.094648E-1,1.4451595E-1,-1.3400218E-4,-2.3536183E-2,1.8318372E-2,-8.01473E-3],"categories":[],"categories_nodes":[],"categories_segments":[],"categories_sizes":[],"default_left":[0,0,0,0,0,0,0,0,0],"id":22,"left_children":[1,3,-1,5,7,-1,-1,-1,-1],"loss_changes":[5.36873E0,4.162889E0,0E0,6.4200544E0,7.1863165E0,0E0,0E0,0E0,0E0],"parents":[2147483647,0,0,1,1,3,3,4,4],"right_children":[2,4,-1,6,8,-1,-1,-1,-1],"split_conditions":[4E0,5.663097E2,6.4580515E-2,5.4113654E2,1.0144662E3,-1.3400218E-4,-2.3536183E-2,1.8318372E-2,-8.01473E-3],"split_indices":[5,0,0,0,0,0,0,0,0],"split_type":[0,0,0,0,0,0,0,0,0],"sum_hessian":[2.7205844E2,2.6985715E2,2.2012846E0,1.6545479E2,1.0440236E2,1.2848364E2,3.697115E1,6.0306953E1,4.40954E1],"tree_param":{"num_deleted":"0","num_feature":"6","num_nodes":"9","size_leaf_vector":"1"}},{"base_weights":[-1.2979176E-2,-2.89408E-2,7.480523E-2,-1.3894168E-1,1.4757027E-1,8.617819E-3,-1.4677397E-2,1.5643142E-2,-5.584249E-3],"categories":[],"categories_nodes":[],"categories_segments":[],"categories_sizes":[],"default_left":[0,0,0,0,0,0,0,0,0],"id":23,"left_children":[1,3,-1,5,7,-1,-1,-1,-1],"loss_changes":[6.8380675E0,5.459347E0,0E0,8.380985E0,4.664363E0,0E0,0E0,0E0,0E0],"parents":[2147483647,0,0,1,1,3,3,4,4],"right_children":[2,4,-1,6,8,-1,-1,-1,-1],"split_conditions":[4E0,5.6755615E2,7.480523E-2,4.5364767E2,1.0291686E3,8.617819E-3,-1.4677397E-2,1.5643142E-2,-5.584249E-3],"split_indices":[5,0,0,0,0,0,0,0,0],"split_type":[0,0,0,0,0,0,0,0,0],"sum_hessian":[2.8108774E2,2.7911633E2,1.9713997E0,1.72086E2,1.0703034E2,5.7067127E1,1.1501887E2,6.52331E1,4.1797245E1],"tree_param":{"num_deleted":"0","num_feature":"6","num_nodes":"9","size_leaf_vector":"1"}},{"base_weights":[2.8829154E-2,4.2084355E-2,-6.0517997E-2,1.8322513E-2,7.962018E-1,1.728305E-3,-3.9075103E-2,1.4847278E-2,5.63046E-2],"categories":[],"categories_nodes":[],"categories_segments":[],"categories_sizes":[],"default_left":[0,0,0,0,0,0,0,0,0],"id":24,"left_children":[1,3,-1,5,7,-1,-1,-1,-1],"loss_changes":[4.6128926E0,4.926812E0,0E0,3.5135489E0,1.0491009E0,0E0,0E0,0E0,0E0],"parents":[2147483647,0,0,1,1,3,3,4,4],"right_children":[2,4,-1,6,8,-1,-1,-1,-1],"split_conditions":[2.712241E0,8.713974E7,-6.0517997E-2,7.9434664E7,1.9995241E0,1.728305E-3,-3.9075103E-2,1.4847278E-2,5.63046E-2],"split_indices":[2,1,0,1,2,0,0,0,0],"split_type":[0,0,0,0,0,0,0,0,0],"sum_hessian":[2.767328E2,2.7475983E2,1.9729769E0,2.6735974E2,7.4000673E0,2.6297577E2,4.383976E0,3.7002454E0,3.699822E0],"tree_param":{"num_deleted":"0","num_feature":"6","num_nodes":"9","size_leaf_vector":"1"}},{"base_weights":[7.40536E-3,4.4619808E-1,-4.1739393E-2,1.3138762E-1,7.3597324E-1,-1.451536E-1,1.2470021E-1,3.328399E-2,-1.451046E-2,4.1287214E-2,-6.6123903E-3,7.1478165E-3,-1.0117362E-2,1.696726E-2,-6.4956504E-3],"categories":[],"categories_nodes":[],"categories_segments":[],"categories_sizes":[],"default_left":[0,0,0,0,0,0,0,0,0,0,0,0,0,0,0],"id":25,"left_children":[1,3,5,7,9,11,13,-1,-1,-1,-1,-1,-1,-1,-1],"loss_changes":[6.1286983E0,2.51446E0,4.4195724E0,3.557706E0,1.2539287E0,2.6354752E0,5.429159E0,0E0,0E0,0E0,0E0,0E0,0E0,0E0,0E0],"parents":[2147483647,0,0,1,1,2,2,3,3,4,4,5,5,6,6],"right_children":[2,4,6,8,10,12,14,-1,-1,-1,-1,-1,-1,-1,-1],"split_conditions":[-2.0286568E-2,-2.7522964E-2,6.7111575E-3,-3.514053E-2,1.1366494E3,4.3998654E2,3.734313E7,3.328399E-2,-1.451046E-2,4.1287214E-2,-6.6123903E-3,7.1478165E-3,-1.0117362E-2,1.696726E-2,-6.4956504E-3],"split_indices":[3,3,3,3,0,0,1,0,0,0,0,0,0,0,0],"split_type":[0,0,0,0,0,0,0,0,0,0,0,0,0,0,0],"sum_hessian":[2.8234134E2,2.7623503E1,2.5471785E2,1.3936434E1,1.3687069E1,1.5718297E2,9.753488E1,5.8913465E0,8.045087E0,1.2448828E1,1.2382416E0,2.5786306E1,1.3139665E2,5.2740555E1,4.4794327E1],"tree_param":{"num_deleted":"0","num_feature":"6","num_nodes":"15","size_leaf_vector":"1"}},{"base_weights":[-2.7026573E-2,-1.4802156E-1,2.2655454E-1,-9.587092E-2,-9.635557E-1,6.725426E-1,9.202374E-2,-1.372881E-2,6.6363784E-3,-5.352351E-2,-2.6259776E-3,4.5297723E-2,-9.460098E-3,3.559053E-2,4.4817678E-4],"categories":[],"categories_nodes":[],"categories_segments":[],"categories_sizes":[],"default_left":[0,0,0,0,0,0,0,0,0,0,0,0,0,0,0],"id":26,"left_children":[1,3,5,7,9,11,13,-1,-1,-1,-1,-1,-1,-1,-1],"loss_changes":[8.4428835E0,7.824795E0,5.2737255E0,7.2293916E0,1.0227957E0,4.284733E0,3.5703359E0,0E0,0E0,0E0,0E0,0E0,0E0,0E0,0E0],"parents":[2147483647,0,0,1,1,2,2,3,3,4,4,5,5,6,6],"right_children":[2,4,6,8,10,12,14,-1,-1,-1,-1,-1,-1,-1,-1],"split_conditions":[1.077295E0,1.037181E0,4.3998654E2,5.5807587E2,4.65408E7,1.7795076E0,1.1247481E0,-1.372881E-2,6.6363784E-3,-5.352351E-2,-2.6259776E-3,4.5297723E-2,-9.460098E-3,3.559053E-2,4.4817678E-4],"split_indices":[2,2,0,0,1,2,2,0,0,0,0,0,0,0,0],"split_type":[0,0,0,0,0,0,0,0,0,0,0,0,0,0,0],"sum_hessian":[2.7308044E2,1.8515225E2,8.792821E1,1.750744E2,1.0077856E1,1.9449913E1,6.8478294E1,9.81473E1,7.692709E1,8.862765E0,1.2150913E0,1.5264164E1,4.1857495E0,7.197968E0,6.1280327E1],"tree_param":{"num_deleted":"0","num_feature":"6","num_nodes":"15","size_leaf_vector":"1"}},{"base_weights":[-1.8067071E-2,1.8691765E-1,-8.154354E-2,9.754629E-2,6.14618E-1,-5.2484795E-2,-7.831174E-1,1.204404E-2,-1.821085E-2,5.5620032E-3,4.7594324E-2,-4.035664E-3,5.1271986E-2,-1.3721875E-3,-4.9268037E-2],"categories":[],"categories_nodes":[],"categories_segments":[],"categories_sizes":[],"default_left":[0,0,0,0,0,0,0,0,0,0,0,0,0,0,0],"id":27,"left_children":[1,3,5,7,9,11,13,-1,-1,-1,-1,-1,-1,-1,-1],"loss_changes":[3.6816497E0,2.4983444E0,4.3593774E0,3.8305466E0,1.8260355E0,6.4220448E0,1.2739863E0,0E0,0E0,0E0,0E0,0E0,0E0,0E0,0E0],"parents":[2147483647,0,0,1,1,2,2,3,3,4,4,5,5,6,6],"right_children":[2,4,6,8,10,12,14,-1,-1,-1,-1,-1,-1,-1,-1],"split_conditions":[-1.0033383E-2,-1.2544706E-2,1.8768176E0,-1.5503972E-2,2.6723278E7,6.5168776E7,2E0,1.204404E-2,-1.821085E-2,5.5620032E-3,4.7594324E-2,-4.035664E-3,5.1271986E-2,-1.3721875E-3,-4.9268037E-2],"split_indices":[3,3,2,3,1,1,4,0,0,0,0,0,0,0,0],"split_type":[0,0,0,0,0,0,0,0,0,0,0,0,0,0,0],"sum_hessian":[2.8077762E2,6.5928825E1,2.1484879E2,5.554941E1,1.0379416E1,2.0733588E2,7.512912E0,4.2756E1,1.279341E1,4.697764E0,5.6816525E0,2.0294627E2,4.3895955E0,1.8259654E0,5.6869464E0],"tree_param":{"num_deleted":"0","num_feature":"6","num_nodes":"15","size_leaf_vector":"1"}},{"base_weights":[-3.0061517E-2,3.1591654E-1,-1.1514698E-1,3.0514922E-3,7.905319E-1,-1.7383647E-1,5.263545E-1,-9.619865E-3,5.387903E-2,6.877249E-2,2.4085011E-2,-1.4826506E-2,-8.3360134E-4,3.6667697E-2,-4.108031E-2],"categories":[],"categories_nodes":[],"categories_segments":[],"categories_sizes":[],"default_left":[0,0,0,0,0,0,0,0,0,0,0,0,0,0,0],"id":28,"left_children":[1,3,5,7,9,11,13,-1,-1,-1,-1,-1,-1,-1,-1],"loss_changes":[8.069772E0,8.035746E0,8.365417E0,7.27005E0,3.2217512E0,3.892047E0,5.811569E0,0E0,0E0,0E0,0E0,0E0,0E0,0E0,0E0],"parents":[2147483647,0,0,1,1,2,2,3,3,4,4,5,5,6,6],"right_children":[2,4,6,8,10,12,14,-1,-1,-1,-1,-1,-1,-1,-1],"split_conditions":[4.3998654E2,1.0641615E0,1.1912483E3,4.1254764E2,4.9159956E7,5.6310486E2,4.018447E7,-9.619865E-3,5.387903E-2,6.877249E-2,2.4085011E-2,-1.4826506E-2,-8.3360134E-4,3.6667697E-2,-4.108031E-2],"split_indices":[0,2,0,0,1,0,1,0,0,0,0,0,0,0,0],"split_type":[0,0,0,0,0,0,0,0,0,0,0,0,0,0,0],"sum_hessian":[2.7189478E2,5.3132454E1,2.1876231E2,3.2629566E1,2.0502886E1,2.0109373E2,1.7668585E1,2.8302502E1,4.327066E0,5.8912725E0,1.4611613E1,1.1243347E2,8.8660255E1,1.5711762E1,1.9568217E0],"tree_param":{"num_deleted":"0","num_feature":"6","num_nodes":"15","size_leaf_vector":"1"}},{"base_weights":[-2.2488788E-2,-1.2183725E-1,1.1913845E-1,-2.2508001E-1,2.4196582E-1,9.268543E-2,4.4445872E-2,-5.9741843E-3,-3.0770084E-2,2.5755173E-2,-1.5493678E-2,7.4313954E-3,-2.7283564E-2],"categories":[],"categories_nodes":[],"categories_segments":[],"categories_sizes":[],"default_left":[0,0,0,0,0,0,0,0,0,0,0,0,0],"id":29,"left_children":[1,3,5,7,9,11,-1,-1,-1,-1,-1,-1,-1],"loss_changes":[3.908351E0,6.182018E0,2.2511716E0,5.1855106E0,5.6679583E0,4.077454E0,0E0,0E0,0E0,0E0,0E0,0E0,0E0],"parents":[2147483647,0,0,1,1,2,2,3,3,4,4,5,5],"right_children":[2,4,6,8,10,12,-1,-1,-1,-1,-1,-1,-1],"split_conditions":[5.6310486E2,4.5710964E7,1.51E3,5.417561E2,6.8983064E7,1.4302325E3,4.4445872E-2,-5.9741843E-3,-3.0770084E-2,2.5755173E-2,-1.5493678E-2,7.4313954E-3,-2.7283564E-2],"split_indices":[0,1,0,0,1,0,0,0,0,0,0,0,0],"split_type":[0,0,0,0,0,0,0,0,0,0,0,0,0],"sum_hessian":[2.7573856E2,1.6214032E2,1.1359822E2,1.26595436E2,3.5544888E1,1.1090736E2,2.6908638E0,1.0066734E2,2.5928093E1,2.3821033E1,1.1723855E1,1.0267646E2,8.230895E0],"tree_param":{"num_deleted":"0","num_feature":"6","num_nodes":"13","size_leaf_vector":"1"}},{"base_weights":[2.8795972E-2,-4.014476E-2,2.2136818E-1,-5.687333E-1,8.870251E-3,7.786379E-1,1.413736E-1,-3.36587E-2,2.2991454E-2,7.137135E-2,-7.587744E-4,1.6259193E-2,6.3009486E-2,-1.2644287E-3,1.8835722E-2],"categories":[],"categories_nodes":[],"categories_segments":[],"categories_sizes":[],"default_left":[0,0,0,0,0,0,0,0,0,0,0,0,0,0,0],"id":30,"left_children":[1,3,5,7,9,11,13,-1,-1,-1,-1,-1,-1,-1,-1],"loss_changes":[3.674331E0,5.294475E0,3.1414E0,2.1722603E0,6.428114E0,1.5410371E0,2.5591488E0,0E0,0E0,0E0,0E0,0E0,0E0,0E0,0E0],"parents":[2147483647,0,0,1,1,2,2,3,3,4,4,5,5,6,6],"right_children":[2,4,6,8,10,12,14,-1,-1,-1,-1,-1,-1,-1,-1],"split_conditions":[1.183631E0,3.0123676E2,3.6320087E2,3E0,3.6320087E2,2.8405093E2,5.663097E2,-3.36587E-2,2.2991454E-2,7.137135E-2,-7.587744E-4,1.6259193E-2,6.3009486E-2,-1.2644287E-3,1.8835722E-2],"split_indices":[2,0,0,5,0,0,0,0,0,0,0,0,0,0,0],"split_type":[0,0,0,0,0,0,0,0,0,0,0,0,0,0,0],"sum_hessian":[2.7509412E2,2.0315596E2,7.193818E1,1.6339882E1,1.8681607E2,7.933945E0,6.400423E1,1.5147333E1,1.192548E0,2.1410952E0,1.8467497E2,4.948997E0,2.9849482E0,3.7991905E1,2.6012325E1],"tree_param":{"num_deleted":"0","num_feature":"6","num_nodes":"15","size_leaf_vector":"1"}},{"base_weights":[1.5580242E-2,-6.715766E-2,2.1012114E-1,-2.261151E-1,1.4904676E-1,6.7125607E-1,1.7256292E-2,-4.498686E-3,-2.412284E-2,1.2567507E-2,-2.566937E-2,9.949325E-3,4.4830695E-2,-9.217824E-3,2.387732E-2],"categories":[],"categories_nodes":[],"categories_segments":[],"categories_sizes":[],"default_left":[0,0,0,0,0,0,0,0,0,0,0,0,0,0,0],"id":31,"left_children":[1,3,5,7,9,11,13,-1,-1,-1,-1,-1,-1,-1,-1],"loss_changes":[4.497123E0,6.7754874E0,7.4012995E0,3.9158E0,5.8026867E0,2.4348183E0,5.6371756E0,0E0,0E0,0E0,0E0,0E0,0E0,0E0,0E0],"parents":[2147483647,0,0,1,1,2,2,3,3,4,4,5,5,6,6],"right_children":[2,4,6,8,10,12,14,-1,-1,-1,-1,-1,-1,-1,-1],"split_conditions":[7.679211E2,9.7636783E-1,9.52716E2,5.417561E2,1.8768176E0,7.4957544E-1,1.1912483E3,-4.498686E-3,-2.412284E-2,1.2567507E-2,-2.566937E-2,9.949325E-3,4.4830695E-2,-9.217824E-3,2.387732E-2],"split_indices":[0,2,0,0,2,2,0,0,0,0,0,0,0,0,0],"split_type":[0,0,0,0,0,0,0,0,0,0,0,0,0,0,0],"sum_hessian":[2.7751874E2,1.9516864E2,8.23501E1,1.1244857E2,8.272008E1,2.3553596E1,5.8796497E1,7.432568E1,3.8122883E1,7.219168E1,1.0528396E1,8.216895E0,1.53367E1,4.130422E1,1.7492281E1],"tree_param":{"num_deleted":"0","num_feature":"6","num_nodes":"15","size_leaf_vector":"1"}},{"base_weights":[-7.641668E-3,-8.477591E-2,2.4941885E-1,5.0057108E-3,-4.2111865E-1,-4.0905457E-2,3.290983E-1,-1.1210202E-2,8.364946E-3,1.009261E-2,-2.6947647E-2,2.5193593E-2,-9.799362E-3],"categories":[],"categories_nodes":[],"categories_segments":[],"categories_sizes":[],"default_left":[0,0,0,0,0,0,0,0,0,0,0,0,0],"id":32,"left_children":[1,3,5,7,9,-1,11,-1,-1,-1,-1,-1,-1],"loss_changes":[5.4346094E0,6.366232E0,5.650831E0,6.262243E0,3.3692164E0,0E0,5.567111E0,0E0,0E0,0E0,0E0,0E0,0E0],"parents":[2147483647,0,0,1,1,2,2,3,3,4,4,6,6],"right_children":[2,4,6,8,10,-1,12,-1,-1,-1,-1,-1,-1],"split_conditions":[1.2227472E0,3.8409056E7,3.3015552E7,0E0,7.9454875E-1,-4.0905457E-2,1.8768176E0,-1.1210202E-2,8.364946E-3,1.009261E-2,-2.6947647E-2,2.5193593E-2,-9.799362E-3],"split_indices":[2,1,1,5,2,0,2,0,0,0,0,0,0],"split_type":[0,0,0,0,0,0,0,0,0,0,0,0,0],"sum_hessian":[2.7201892E2,2.0975076E2,6.2268143E1,1.6633522E2,4.3415558E1,3.6811671E0,5.8586975E1,6.879427E1,9.754094E1,6.7923717E0,3.6623184E1,4.3986553E1,1.4600425E1],"tree_param":{"num_deleted":"0","num_feature":"6","num_nodes":"13","size_leaf_vector":"1"}},{"base_weights":[2.2461656E-2,2.668865E-3,7.779364E-1,-4.3012124E-2,2.530908E-1,2.51736E-1,1.1308209E0,9.692583E-3,-4.2853504E-3,2.7699757E-2,-7.7575416E-4,-4.6192084E-2,5.1703345E-2,7.06781E-2,1.42123075E-2],"categories":[],"categories_nodes":[],"categories_segments":[],"categories_sizes":[],"default_left":[0,0,0,0,0,0,0,0,0,0,0,0,0,0,0],"id":33,"left_children":[1,3,5,7,9,11,13,-1,-1,-1,-1,-1,-1,-1,-1],"loss_changes":[4.141364E0,3.1113107E0,1.0283237E0,2.3432806E0,3.3998182E0,4.748856E0,5.4275703E-1,0E0,0E0,0E0,0E0,0E0,0E0,0E0,0E0],"parents":[2147483647,0,0,1,1,2,2,3,3,4,4,5,5,6,6],"right_children":[2,4,6,8,10,12,14,-1,-1,-1,-1,-1,-1,-1,-1],"split_conditions":[5E0,1E0,6.2497556E-3,-1.6176496E-2,2E0,6.2526056E7,4.65408E7,9.692583E-3,-4.2853504E-3,2.7699757E-2,-7.7575416E-4,-4.6192084E-2,5.1703345E-2,7.06781E-2,1.42123075E-2],"split_indices":[4,5,3,3,4,1,1,0,0,0,0,0,0,0,0],"split_type":[0,0,0,0,0,0,0,0,0,0,0,0,0,0,0],"sum_hessian":[2.7609845E2,2.700275E2,6.070956E0,2.2906973E2,4.0957764E1,3.1248024E0,2.9461539E0,3.4443394E1,1.9462634E2,1.8816355E1,2.2141407E1,1.1763157E0,1.9484867E0,1.7064775E0,1.2396762E0],"tree_param":{"num_deleted":"0","num_feature":"6","num_nodes":"15","size_leaf_vector":"1"}},{"base_weights":[-2.2792775E-2,-1.2301752E-1,1.3711216E-1,1.3488068E-2,-3.6382866E-1,3.5790697E-1,-5.261932E-2,2.0093286E-2,-5.3364835E-3,1.2768979E-2,-2.33623E-2,3.209194E-3,3.2837685E-2,-7.1884575E-3,4.7855385E-2],"categories":[],"categories_nodes":[],"categories_segments":[],"categories_sizes":[],"default_left":[0,0,0,0,0,0,0,0,0,0,0,0,0,0,0],"id":34,"left_children":[1,3,5,7,9,11,13,-1,-1,-1,-1,-1,-1,-1,-1],"loss_changes":[4.414983E0,5.5675807E0,4.4680247E0,5.1304574E0,4.042021E0,4.2777157E0,5.4751167E0,0E0,0E0,0E0,0E0,0E0,0E0,0E0,0E0],"parents":[2147483647,0,0,1,1,2,2,3,3,4,4,5,5,6,6],"right_children":[2,4,6,8,10,12,14,-1,-1,-1,-1,-1,-1,-1,-1],"split_conditions":[5.663097E2,5.178269E2,9.426315E2,2.3547404E7,-2E0,7.679211E2,1E0,2.0093286E-2,-5.3364835E-3,1.2768979E-2,-2.33623E-2,3.209194E-3,3.2837685E-2,-7.1884575E-3,4.7855385E-2],"split_indices":[0,0,0,1,5,0,5,0,0,0,0,0,0,0,0],"split_type":[0,0,0,0,0,0,0,0,0,0,0,0,0,0,0],"sum_hessian":[2.7342883E2,1.682219E2,1.0520695E2,1.0796508E2,6.0256824E1,4.8213467E1,5.699348E1,2.496615E1,8.2998924E1,8.413263E0,5.184356E1,2.4927807E1,2.3285658E1,5.3061172E1,3.9323096E0],"tree_param":{"num_deleted":"0","num_feature":"6","num_nodes":"15","size_leaf_vector":"1"}},{"base_weights":[2.351012E-2,3.542399E-1,-1.7660717E-2,-4.2703185E-2,4.294694E-1,-2.305238E-1,8.565857E-2,1.6187632E-2,6.563998E-2,-1.0918205E-3,-2.3528356E-2,1.6667502E-2,-2.173036E-3],"categories":[],"categories_nodes":[],"categories_segments":[],"categories_sizes":[],"default_left":[0,0,0,0,0,0,0,0,0,0,0,0,0],"id":35,"left_children":[1,3,5,-1,7,9,11,-1,-1,-1,-1,-1,-1],"loss_changes":[3.8329043E0,3.199132E0,5.537163E0,0E0,2.3762698E0,4.109906E0,5.439361E0,0E0,0E0,0E0,0E0,0E0,0E0],"parents":[2147483647,0,0,1,1,2,2,4,4,5,5,6,6],"right_children":[2,4,6,-1,8,10,12,-1,-1,-1,-1,-1,-1],"split_conditions":[5.7727957E-1,9.357138E6,8.405544E-1,-4.2703185E-2,5.6886494E-1,2.6343906E7,5.0779184E2,1.6187632E-2,6.563998E-2,-1.0918205E-3,-2.3528356E-2,1.6667502E-2,-2.173036E-3],"split_indices":[2,1,2,0,2,1,0,0,0,0,0,0,0],"split_type":[0,0,0,0,0,0,0,0,0,0,0,0,0],"sum_hessian":[2.8003186E2,3.01588E1,2.4987305E2,1.1608564E0,2.8997944E1,8.1249E1,1.6862405E2,2.7118876E1,1.8790677E0,4.4046818E1,3.7202183E1,5.7239307E1,1.1138474E2],"tree_param":{"num_deleted":"0","num_feature":"6","num_nodes":"13","size_leaf_vector":"1"}},{"base_weights":[-2.6319936E-4,-5.7839658E-2,2.0924982E-1,-1.2705824E-2,-5.380689E-1,8.021992E-1,9.796667E-2,-2.8669266E-3,2.21421E-2,-3.5374172E-2,2.9884497E-2,1.2359829E-2,6.972519E-2,-5.201855E-2,7.3829736E-3],"categories":[],"categories_nodes":[],"categories_segments":[],"categories_sizes":[],"default_left":[0,0,0,0,0,0,0,0,0,0,0,0,0,0,0],"id":36,"left_children":[1,3,5,7,9,11,13,-1,-1,-1,-1,-1,-1,-1,-1],"loss_changes":[3.2912853E0,4.6319823E0,3.8024387E0,4.023923E0,3.9560237E0,2.6648488E0,3.0193968E0,0E0,0E0,0E0,0E0,0E0,0E0,0E0,0E0],"parents":[2147483647,0,0,1,1,2,2,3,3,4,4,5,5,6,6],"right_children":[2,4,6,8,10,12,14,-1,-1,-1,-1,-1,-1,-1,-1],"split_conditions":[1.2227472E0,1.147181E0,3.7450668E2,1.0641615E0,1.1515399E3,2.8617493E2,3.8369424E2,-2.8669266E-3,2.21421E-2,-3.5374172E-2,2.9884497E-2,1.2359829E-2,6.972519E-2,-5.201855E-2,7.3829736E-3],"split_indices":[2,2,0,2,0,0,0,0,0,0,0,0,0,0,0],"split_type":[0,0,0,0,0,0,0,0,0,0,0,0,0,0,0],"sum_hessian":[2.7083765E2,2.1302109E2,5.7816578E1,1.9565875E2,1.7362322E1,8.155111E0,4.966147E1,1.7899564E2,1.6663126E1,1.54367895E1,1.925533E0,4.941842E0,3.2132695E0,1.243351E0,4.8418118E1],"tree_param":{"num_deleted":"0","num_feature":"6","num_nodes":"15","size_leaf_vector":"1"}},{"base_weights":[2.8565796E-3,-2.4981262E-2,7.4517816E-1,4.480886E-3,-7.814079E-1,9.0268403E-1,-1.0684813E-2,-2.2655767E-3,2.4554754E-2,-1.1440461E-2,-4.5808125E-2,6.5584265E-2,2.841655E-2],"categories":[],"categories_nodes":[],"categories_segments":[],"categories_sizes":[],"default_left":[0,0,0,0,0,0,0,0,0,0,0,0,0],"id":37,"left_children":[1,3,5,7,9,11,-1,-1,-1,-1,-1,-1,-1],"loss_changes":[5.714951E0,5.946275E0,1.7026076E0,6.265218E0,5.35213E-1,4.5482922E-1,0E0,0E0,0E0,0E0,0E0,0E0,0E0],"parents":[2147483647,0,0,1,1,2,2,3,3,4,4,5,5],"right_children":[2,4,6,8,10,12,-1,-1,-1,-1,-1,-1,-1],"split_conditions":[8.713974E7,1.8768176E0,7.8947574E-2,2.2304963E-2,2E0,9.580847E7,-1.0684813E-2,-2.2655767E-3,2.4554754E-2,-1.1440461E-2,-4.5808125E-2,6.5584265E-2,2.841655E-2],"split_indices":[1,2,3,3,4,1,0,0,0,0,0,0,0],"split_type":[0,0,0,0,0,0,0,0,0,0,0,0,0],"sum_hessian":[2.7465628E2,2.656601E2,8.996186E0,2.566576E2,9.00251E0,7.7772813E0,1.2189053E0,2.3365582E2,2.3001766E1,2.2938623E0,6.7086477E0,2.18338E0,5.593901E0],"tree_param":{"num_deleted":"0","num_feature":"6","num_nodes":"13","size_leaf_vector":"1"}},{"base_weights":[-8.422444E-3,-8.787486E-2,1.141009E-1,-2.0002598E-1,1.3033232E-1,2.2973058E-1,-6.25871E-2,4.761731E-2,-1.1742144E-2,3.3992033E-2,-1.6674579E-3,9.169575E-3,5.019663E-2,1.3962117E-2,-1.5684946E-2],"categories":[],"categories_nodes":[],"categories_segments":[],"categories_sizes":[],"default_left":[0,0,0,0,0,0,0,0,0,0,0,0,0,0,0],"id":38,"left_children":[1,3,5,7,9,11,13,-1,-1,-1,-1,-1,-1,-1,-1],"loss_changes":[2.6687834E0,4.094466E0,2.2182791E0,4.6452026E0,5.15338E0,2.162779E0,3.8178008E0,0E0,0E0,0E0,0E0,0E0,0E0,0E0,0E0],"parents":[2147483647,0,0,1,1,2,2,3,3,4,4,5,5,6,6],"right_children":[2,4,6,8,10,12,14,-1,-1,-1,-1,-1,-1,-1,-1],"split_conditions":[5.663097E2,7.1303993E-3,3.764587E7,2.5943173E2,1.0273992E-2,1.51E3,8.9969586E2,4.761731E-2,-1.1742144E-2,3.3992033E-2,-1.6674579E-3,9.169575E-3,5.019663E-2,1.3962117E-2,-1.5684946E-2],"split_indices":[0,3,1,0,3,0,0,0,0,0,0,0,0,0,0],"split_type":[0,0,0,0,0,0,0,0,0,0,0,0,0,0,0],"sum_hessian":[2.721195E2,1.6524577E2,1.0687373E2,1.0920263E2,5.6043144E1,6.441712E1,4.2456608E1,2.4297452E0,1.0677288E2,1.21385145E1,4.3904633E1,6.1946266E1,2.470853E0,1.7933016E1,2.4523592E1],"tree_param":{"num_deleted":"0","num_feature":"6","num_nodes":"15","size_leaf_vector":"1"}},{"base_weights":[-3.924587E-2,-5.2229133E-2,5.4980155E-2,-2.0354486E-1,5.244574E-2,-7.3439754E-3,-3.730169E-2,4.1200396E-2,1.7366175E-3],"categories":[],"categories_nodes":[],"categories_segments":[],"categories_sizes":[],"default_left":[0,0,0,0,0,0,0,0,0],"id":39,"left_children":[1,3,-1,5,7,-1,-1,-1,-1],"loss_changes":[3.9108715E0,4.10713E0,0E0,3.1476574E0,2.0716124E0,0E0,0E0,0E0,0E0],"parents":[2147483647,0,0,1,1,3,3,4,4],"right_children":[2,4,-1,6,8,-1,-1,-1,-1],"split_conditions":[4E0,8.405544E-1,5.4980155E-2,8.1682223E-1,8.461775E-1,-7.3439754E-3,-3.730169E-2,4.1200396E-2,1.7366175E-3],"split_indices":[5,2,0,2,2,0,0,0,0],"split_type":[0,0,0,0,0,0,0,0,0],"sum_hessian":[2.5961456E2,2.5763162E2,1.9829491E0,1.0495966E2,1.5267195E2,9.618362E1,8.776049E0,2.4047923E0,1.5026717E2],"tree_param":{"num_deleted":"0","num_feature":"6","num_nodes":"9","size_leaf_vector":"1"}},{"base_weights":[-9.34469E-5,-4.257877E-1,4.0224858E-2,2.3128046E-1,-6.0110223E-1,8.404382E-2,3.6895766E-3,4.716588E-2,-3.0253759E-2,-4.007283E-2,3.492005E-3,1.8835189E-2,-1.9285247E-3],"categories":[],"categories_nodes":[],"categories_segments":[],"categories_sizes":[],"default_left":[0,0,0,0,0,0,0,0,0,0,0,0,0],"id":40,"left_children":[1,3,5,7,9,-1,11,-1,-1,-1,-1,-1,-1],"loss_changes":[4.636768E0,2.8314753E0,1.4786515E1,3.9324517E0,2.5735483E0,0E0,3.83581E0,0E0,0E0,0E0,0E0,0E0,0E0],"parents":[2147483647,0,0,1,1,2,2,3,3,4,4,6,6],"right_children":[2,4,6,8,10,-1,12,-1,-1,-1,-1,-1,-1],"split_conditions":[3.0123676E2,2.5943173E2,3.6320087E2,-3.4482826E-3,1.2227472E0,8.404382E-2,-2.0286568E-2,4.716588E-2,-3.0253759E-2,-4.007283E-2,3.492005E-3,1.8835189E-2,-1.9285247E-3],"split_indices":[0,0,0,3,2,0,3,0,0,0,0,0,0],"split_type":[0,0,0,0,0,0,0,0,0,0,0,0,0],"sum_hessian":[2.681585E2,2.2373274E1,2.4578525E2,4.6449723E0,1.7728302E1,4.3736877E0,2.4141156E2,2.439876E0,2.205096E0,1.3501893E1,4.226409E0,2.3761707E1,2.1764984E2],"tree_param":{"num_deleted":"0","num_feature":"6","num_nodes":"13","size_leaf_vector":"1"}},{"base_weights":[1.8515477E-2,-9.407586E-2,1.6055246E-1,-1.9338885E-1,2.780796E-1,1.2627506E-1,8.37824E-1,-1.4114313E-2,1.2634756E-2,2.2994718E-2,1.4318619E-3,9.885684E-3,-6.197196E-3,5.297779E-2,1.0344337E-2],"categories":[],"categories_nodes":[],"categories_segments":[],"categories_sizes":[],"default_left":[0,0,0,0,0,0,0,0,0,0,0,0,0,0,0],"id":41,"left_children":[1,3,5,7,9,11,13,-1,-1,-1,-1,-1,-1,-1,-1],"loss_changes":[4.349226E0,5.664612E0,2.684823E0,4.8467007E0,1.4557059E0,2.0907784E0,5.6608033E-1,0E0,0E0,0E0,0E0,0E0,0E0,0E0,0E0],"parents":[2147483647,0,0,1,1,2,2,3,3,4,4,5,5,6,6],"right_children":[2,4,6,8,10,12,14,-1,-1,-1,-1,-1,-1,-1,-1],"split_conditions":[9.588657E-1,1E0,5E0,1.3872801E-2,1.0952816E-3,1.582834E0,1.7154629E0,-1.4114313E-2,1.2634756E-2,2.2994718E-2,1.4318619E-3,9.885684E-3,-6.197196E-3,5.297779E-2,1.0344337E-2],"split_indices":[2,5,4,3,3,2,2,0,0,0,0,0,0,0,0],"split_type":[0,0,0,0,0,0,0,0,0,0,0,0,0,0,0],"sum_hessian":[2.7001587E2,1.5080884E2,1.1920703E2,1.1942071E2,3.1388123E1,1.14593765E2,4.6132593E0,9.988284E1,1.9537865E1,1.766713E1,1.3720992E1,8.9306274E1,2.5287495E1,2.9109285E0,1.702331E0],"tree_param":{"num_deleted":"0","num_feature":"6","num_nodes":"15","size_leaf_vector":"1"}},{"base_weights":[1.6652104E-2,7.4811447E-1,-2.4735585E-3,4.47441E-2,1.1858546E-2,-6.477175E-1,9.283524E-3,-1.4283059E-3,-5.7226222E-2,1.7489947E-2,-8.076394E-4],"categories":[],"categories_nodes":[],"categories_segments":[],"categories_sizes":[],"default_left":[0,0,0,0,0,0,0,0,0,0,0],"id":42,"left_children":[1,3,5,-1,-1,7,9,-1,-1,-1,-1],"loss_changes":[3.8598104E0,3.149538E-1,2.0523202E0,0E0,0E0,1.4564426E0,2.3087316E0,0E0,0E0,0E0,0E0],"parents":[2147483647,0,0,1,1,2,2,5,5,6,6],"right_children":[2,4,6,-1,-1,8,10,-1,-1,-1,-1],"split_conditions":[-3.514053E-2,4E0,-2.9900309E-2,4.47441E-2,1.1858546E-2,1.5691833E0,-2.0286568E-2,-1.4283059E-3,-5.7226222E-2,1.7489947E-2,-8.076394E-4],"split_indices":[3,4,3,0,0,2,3,0,0,0,0],"split_type":[0,0,0,0,0,0,0,0,0,0,0],"sum_hessian":[2.747714E2,6.0302005E0,2.687412E2,4.1008186E0,1.9293821E0,3.841169E0,2.6490002E2,2.1808095E0,1.6603596E0,1.752613E1,2.473739E2],"tree_param":{"num_deleted":"0","num_feature":"6","num_nodes":"11","size_leaf_vector":"1"}},{"base_weights":[3.3567216E-2,5.757194E-1,3.7143463E-3,-5.1747996E-1,8.577204E-1,-1.10943444E-1,1.4153042E-1,-3.573446E-2,-8.018578E-3,-1.0865842E-2,6.229003E-2,-1.0400539E-2,1.3801144E-2,3.890212E-2,4.5476835E-3],"categories":[],"categories_nodes":[],"categories_segments":[],"categories_sizes":[],"default_left":[0,0,0,0,0,0,0,0,0,0,0,0,0,0,0],"id":43,"left_children":[1,3,5,7,9,11,13,-1,-1,-1,-1,-1,-1,-1,-1],"loss_changes":[4.455603E0,4.8732805E0,4.156687E0,1.3680458E-1,5.192868E0,5.4516335E0,3.7746682E0,0E0,0E0,0E0,0E0,0E0,0E0,0E0,0E0],"parents":[2147483647,0,0,1,1,2,2,3,3,4,4,5,5,6,6],"right_children":[2,4,6,8,10,12,14,-1,-1,-1,-1,-1,-1,-1,-1],"split_conditions":[1.5325791E7,0E0,9.7636783E-1,1.3670307E7,4.1053566E-1,1E0,1.0136807E0,-3.573446E-2,-8.018578E-3,-1.0865842E-2,6.229003E-2,-1.0400539E-2,1.3801144E-2,3.890212E-2,4.5476835E-3],"split_indices":[1,5,2,1,2,5,2,0,0,0,0,0,0,0,0],"split_type":[0,0,0,0,0,0,0,0,0,0,0,0,0,0,0],"sum_hessian":[2.744277E2,1.3368043E1,2.6105966E2,2.5700414E0,1.0798001E1,1.4260918E2,1.1845048E2,1.0106167E0,1.5594249E0,2.9807954E0,7.817206E0,1.1438027E2,2.82289E1,7.660401E0,1.1079008E2],"tree_param":{"num_deleted":"0","num_feature":"6","num_nodes":"15","size_leaf_vector":"1"}},{"base_weights":[1.2899485E-2,1.0965005E-3,9.0785164E-1,-6.9094956E-2,1.4037989E-1,5.8205534E-2,1.2329528E-2,-5.6434696E-4,-2.266645E-2,3.4868762E-2,2.403597E-3],"categories":[],"categories_nodes":[],"categories_segments":[],"categories_sizes":[],"default_left":[0,0,0,0,0,0,0,0,0,0,0],"id":44,"left_children":[1,3,5,7,9,-1,-1,-1,-1,-1,-1],"loss_changes":[2.831358E0,2.6068017E0,3.0417538E-1,3.9331172E0,4.5600934E0,0E0,0E0,0E0,0E0,0E0,0E0],"parents":[2147483647,0,0,1,1,2,2,3,3,4,4],"right_children":[2,4,6,8,10,-1,-1,-1,-1,-1,-1],"split_conditions":[4E0,6.968793E-3,4.6650528E2,3.992059E-3,9.38073E-3,5.8205534E-2,1.2329528E-2,-5.6434696E-4,-2.266645E-2,3.4868762E-2,2.403597E-3],"split_indices":[5,3,0,3,3,0,0,0,0,0,0],"split_type":[0,0,0,0,0,0,0,0,0,0,0],"sum_hessian":[2.671364E2,2.6464737E2,2.4890494E0,1.763036E2,8.834376E1,1.2458168E0,1.2432327E0,1.5414227E2,2.216133E1,1.1627483E1,7.671627E1],"tree_param":{"num_deleted":"0","num_feature":"6","num_nodes":"11","size_leaf_vector":"1"}},{"base_weights":[-1.3368845E-2,-4.7074627E-2,4.6095625E-1,1.1595698E-2,-3.3840123E-1,1.2635775E0,-3.020964E-2,-4.323781E-3,1.0113976E-2,2.8975358E-2,-2.2700986E-2,7.7370256E-2,6.73756E-3,-1.9209001E-2,4.821248E-2],"categories":[],"categories_nodes":[],"categories_segments":[],"categories_sizes":[],"default_left":[0,0,0,0,0,0,0,0,0,0,0,0,0,0,0],"id":45,"left_children":[1,3,5,7,9,11,13,-1,-1,-1,-1,-1,-1,-1,-1],"loss_changes":[4.346817E0,4.3366303E0,7.150419E0,3.9813488E0,4.77626E0,1.9933624E0,4.6539946E0,0E0,0E0,0E0,0E0,0E0,0E0,0E0,0E0],"parents":[2147483647,0,0,1,1,2,2,3,3,4,4,5,5,6,6],"right_children":[2,4,6,8,10,12,14,-1,-1,-1,-1,-1,-1,-1,-1],"split_conditions":[1.1912483E3,9.426315E2,1.4302325E3,6.8492815E-3,-2.1551685E-2,1.2298027E0,1.51E3,-4.323781E-3,1.0113976E-2,2.8975358E-2,-2.2700986E-2,7.7370256E-2,6.73756E-3,-1.9209001E-2,4.821248E-2],"split_indices":[0,0,0,3,3,2,0,0,0,0,0,0,0,0,0],"split_type":[0,0,0,0,0,0,0,0,0,0,0,0,0,0,0],"sum_hessian":[2.6953122E2,2.524899E2,1.7041307E1,2.10964E2,4.1525894E1,5.8724475E0,1.11688595E1,1.3967416E2,7.1289856E1,4.1965737E0,3.732932E1,4.3962603E0,1.4761873E0,8.689556E0,2.4793036E0],"tree_param":{"num_deleted":"0","num_feature":"6","num_nodes":"15","size_leaf_vector":"1"}},{"base_weights":[-5.333228E-3,-6.488751E-2,2.0116282E-1,5.6277286E-2,-2.5079268E-1,-8.053531E-2,3.5017496E-1,-2.3923132E-3,2.4265366E-2,-4.162016E-2,-9.029064E-3,-1.6753795E-2,3.760099E-2,4.1290503E-2,-1.8249681E-3],"categories":[],"categories_nodes":[],"categories_segments":[],"categories_sizes":[],"default_left":[0,0,0,0,0,0,0,0,0,0,0,0,0,0,0],"id":46,"left_children":[1,3,5,7,9,11,13,-1,-1,-1,-1,-1,-1,-1,-1],"loss_changes":[3.3753693E0,4.811166E0,2.6074665E0,5.819371E0,3.2886791E0,4.9292984E0,7.455619E0,0E0,0E0,0E0,0E0,0E0,0E0,0E0,0E0],"parents":[2147483647,0,0,1,1,2,2,3,3,4,4,5,5,6,6],"right_children":[2,4,6,8,10,12,14,-1,-1,-1,-1,-1,-1,-1,-1],"split_conditions":[3E0,3.4137732E7,3.5775396E7,2.9415526E7,3.5522376E7,3E0,4.9679412E7,-2.3923132E-3,2.4265366E-2,-4.162016E-2,-9.029064E-3,-1.6753795E-2,3.760099E-2,4.1290503E-2,-1.8249681E-3],"split_indices":[4,1,1,1,1,5,1,0,0,0,0,0,0,0,0],"split_type":[0,0,0,0,0,0,0,0,0,0,0,0,0,0,0],"sum_hessian":[2.724097E2,2.1196416E2,6.0445538E1,1.287487E2,8.3215454E1,2.1071234E1,3.9374306E1,1.0431937E2,2.4429337E1,7.7942753E0,7.542117E1,1.6595081E1,4.4761515E0,1.7146856E1,2.2227448E1],"tree_param":{"num_deleted":"0","num_feature":"6","num_nodes":"15","size_leaf_vector":"1"}},{"base_weights":[-1.2459822E-2,-4.248946E-2,3.0986717E-1,1.1677771E-1,-1.0832168E-1,7.126761E-1,4.238634E-2,2.224492E-2,-2.0620856E-3,-1.6070107E-2,7.517215E-4,5.0841946E-2,-9.51174E-3,-2.5295475E-2,2.6039178E-2],"categories":[],"categories_nodes":[],"categories_segments":[],"categories_sizes":[],"default_left":[0,0,0,0,0,0,0,0,0,0,0,0,0,0,0],"id":47,"left_children":[1,3,5,7,9,11,13,-1,-1,-1,-1,-1,-1,-1,-1],"loss_changes":[2.6250315E0,2.609981E0,2.460568E0,3.7996902E0,4.625475E0,2.70959E0,4.186398E0,0E0,0E0,0E0,0E0,0E0,0E0,0E0,0E0],"parents":[2147483647,0,0,1,1,2,2,3,3,4,4,5,5,6,6],"right_children":[2,4,6,8,10,12,14,-1,-1,-1,-1,-1,-1,-1,-1],"split_conditions":[6.5168776E7,2.3976624E7,1.6999719E0,1E0,8.826296E-1,7.9434664E7,8.501196E7,2.224492E-2,-2.0620856E-3,-1.6070107E-2,7.517215E-4,5.0841946E-2,-9.51174E-3,-2.5295475E-2,2.6039178E-2],"split_indices":[1,1,2,4,2,1,1,0,0,0,0,0,0,0,0],"split_type":[0,0,0,0,0,0,0,0,0,0,0,0,0,0,0],"sum_hessian":[2.688385E2,2.4672089E2,2.2117607E1,7.192928E1,1.7479161E2,8.161904E0,1.3955703E1,2.2790438E1,4.9138844E1,6.349954E1,1.1129207E2,6.0108542E0,2.15105E0,6.4759927E0,7.4797096E0],"tree_param":{"num_deleted":"0","num_feature":"6","num_nodes":"15","size_leaf_vector":"1"}},{"base_weights":[-5.0738905E-2,-9.113386E-2,3.5280558E-1,-1.8494578E-1,9.956466E-2,5.3409386E-1,-3.640539E-1,1.6330778E-5,-2.0588806E-2,5.4341175E-2,3.0760258E-3,1.2770972E-2,4.8802864E-2,6.9804825E-3,-5.3199768E-2],"categories":[],"categories_nodes":[],"categories_segments":[],"categories_sizes":[],"default_left":[0,0,0,0,0,0,0,0,0,0,0,0,0,0,0],"id":48,"left_children":[1,3,5,7,9,11,13,-1,-1,-1,-1,-1,-1,-1,-1],"loss_changes":[4.442818E0,4.4326906E0,3.4206963E0,6.9653273E0,3.0134094E0,2.2410402E0,2.1247063E0,0E0,0E0,0E0,0E0,0E0,0E0,0E0,0E0],"parents":[2147483647,0,0,1,1,2,2,3,3,4,4,5,5,6,6],"right_children":[2,4,6,8,10,12,14,-1,-1,-1,-1,-1,-1,-1,-1],"split_conditions":[6.426124E7,6.666309E2,3.4663804E-2,5.130412E2,7.2855316E2,-9.074403E-3,2.2339077E0,1.6330778E-5,-2.0588806E-2,5.4341175E-2,3.0760258E-3,1.2770972E-2,4.8802864E-2,6.9804825E-3,-5.3199768E-2],"split_indices":[1,0,3,0,0,3,2,0,0,0,0,0,0,0,0],"split_type":[0,0,0,0,0,0,0,0,0,0,0,0,0,0,0],"sum_hessian":[2.6957367E2,2.4574832E2,2.3825336E1,1.647377E2,8.101063E1,1.9219759E1,4.6055775E0,9.122485E1,7.351285E1,1.9830245E0,7.90276E1,1.2755108E1,6.464652E0,3.1438606E0,1.461717E0],"tree_param":{"num_deleted":"0","num_feature":"6","num_nodes":"15","size_leaf_vector":"1"}},{"base_weights":[1.3170786E-2,4.3339297E-1,-1.5274972E-2,5.139489E-2,2.8112727E-1,-1.04429446E-1,1.10709295E-1,-2.7576253E-2,2.0328028E-2,2.713182E-3,-1.9449105E-2,1.38023915E-2,-1.0374386E-3],"categories":[],"categories_nodes":[],"categories_segments":[],"categories_sizes":[],"default_left":[0,0,0,0,0,0,0,0,0,0,0,0,0],"id":49,"left_children":[1,3,5,-1,7,9,11,-1,-1,-1,-1,-1,-1],"loss_changes":[3.2804904E0,1.2859759E0,2.9036443E0,0E0,1.8146033E0,6.8531294E0,2.3354716E0,0E0,0E0,0E0,0E0,0E0,0E0],"parents":[2147483647,0,0,1,1,2,2,4,4,5,5,6,6],"right_children":[2,4,6,-1,8,10,12,-1,-1,-1,-1,-1,-1],"split_conditions":[1.5821327E7,4.7635254E2,5.663097E2,5.139489E-2,4.8778497E2,5.17319E2,9.426315E2,-2.7576253E-2,2.0328028E-2,2.713182E-3,-1.9449105E-2,1.38023915E-2,-1.0374386E-3],"split_indices":[1,0,0,0,0,0,0,0,0,0,0,0,0],"split_type":[0,0,0,0,0,0,0,0,0,0,0,0,0],"sum_hessian":[2.7288297E2,1.6398352E1,2.564846E2,2.171048E0,1.4227304E1,1.502964E2,1.06188194E2,1.4179171E0,1.2809387E1,9.700607E1,5.329033E1,4.6546036E1,5.9642162E1],"tree_param":{"num_deleted":"0","num_feature":"6","num_nodes":"13","size_leaf_vector":"1"}},{"base_weights":[-2.9535329E-2,2.6692063E-1,-6.7867145E-2,-4.0781412E-2,3.347181E-1,-6.732373E-1,-2.37016E-2,-2.709751E-3,2.5636354E-2,-3.873234E-2,1.6127538E-2,-4.694073E-3,6.383811E-3],"categories":[],"categories_nodes":[],"categories_segments":[],"categories_sizes":[],"default_left":[0,0,0,0,0,0,0,0,0,0,0,0,0],"id":50,"left_children":[1,3,5,-1,7,9,11,-1,-1,-1,-1,-1,-1],"loss_changes":[3.089696E0,2.5592813E0,6.4047346E0,0E0,2.1063356E0,1.8951116E0,2.4007683E0,0E0,0E0,0E0,0E0,0E0,0E0],"parents":[2147483647,0,0,1,1,2,2,4,4,5,5,6,6],"right_children":[2,4,6,-1,8,10,12,-1,-1,-1,-1,-1,-1],"split_conditions":[5.7727957E-1,9.357138E6,6.3856465E-1,-4.0781412E-2,-4.597622E-3,3.685887E7,7.776416E2,-2.709751E-3,2.5636354E-2,-3.873234E-2,1.6127538E-2,-4.694073E-3,6.383811E-3],"split_indices":[2,1,2,0,3,1,0,0,0,0,0,0,0],"split_type":[0,0,0,0,0,0,0,0,0,0,0,0,0],"sum_hessian":[2.692977E2,3.0150684E1,2.3914702E2,1.1268864E0,2.9023798E1,1.5292439E1,2.2385458E2,9.3316345E0,1.9692163E1,1.4080574E1,1.2118661E0,1.5320667E2,7.06479E1],"tree_param":{"num_deleted":"0","num_feature":"6","num_nodes":"13","size_leaf_vector":"1"}},{"base_weights":[-1.6756598E-2,-3.7498698E-2,5.8007514E-1,-1.4938373E-2,-1.0395361E0,8.373466E-3,7.859714E-1,-1.4370468E-3,5.499333E-2,-1.8737063E-2,-6.654022E-2,1.5529993E-2,-1.4854561E-2,1.2020234E-2,5.4118242E-2],"categories":[],"categories_nodes":[],"categories_segments":[],"categories_sizes":[],"default_left":[0,0,0,0,0,0,0,0,0,0,0,0,0,0,0],"id":51,"left_children":[1,3,5,7,9,11,13,-1,-1,-1,-1,-1,-1,-1,-1],"loss_changes":[3.386579E0,5.9438443E0,1.0751486E0,4.014207E0,6.2241125E-1,4.102304E-1,8.305783E-1,0E0,0E0,0E0,0E0,0E0,0E0,0E0,0E0],"parents":[2147483647,0,0,1,1,2,2,3,3,4,4,5,5,6,6],"right_children":[2,4,6,8,10,12,14,-1,-1,-1,-1,-1,-1,-1,-1],"split_conditions":[8.713974E7,7.9434664E7,3E0,7.509723E7,3E0,6.0567633E2,4.5364767E2,-1.4370468E-3,5.499333E-2,-1.8737063E-2,-6.654022E-2,1.5529993E-2,-1.4854561E-2,1.2020234E-2,5.4118242E-2],"split_indices":[1,1,4,1,4,0,0,0,0,0,0,0,0,0,0],"split_type":[0,0,0,0,0,0,0,0,0,0,0,0,0,0,0],"sum_hessian":[2.7080542E2,2.6261572E2,8.189692E0,2.5782584E2,4.789899E0,2.4440603E0,5.745631E0,2.55635E2,2.190835E0,2.1558776E0,2.6340215E0,1.2200918E0,1.2239685E0,2.6601796E0,3.0854516E0],"tree_param":{"num_deleted":"0","num_feature":"6","num_nodes":"15","size_leaf_vector":"1"}},{"base_weights":[-3.8042333E-2,6.903725E-1,-5.484851E-2,4.633626E-2,5.0842483E-3,-6.89862E-2,5.444528E-1,-3.8983866E-3,3.0934518E-2,4.7435414E-2,-8.704506E-3],"categories":[],"categories_nodes":[],"categories_segments":[],"categories_sizes":[],"default_left":[0,0,0,0,0,0,0,0,0,0,0],"id":52,"left_children":[1,3,5,-1,-1,7,9,-1,-1,-1,-1],"loss_changes":[3.3745296E0,7.7125835E-1,2.3026705E0,0E0,0E0,1.6668692E0,1.9875321E0,0E0,0E0,0E0,0E0],"parents":[2147483647,0,0,1,1,2,2,5,5,6,6],"right_children":[2,4,6,-1,-1,8,10,-1,-1,-1,-1],"split_conditions":[-3.514053E-2,8.116633E2,4.511272E-2,4.633626E-2,5.0842483E-3,1.51E3,1.8768176E0,-3.8983866E-3,3.0934518E-2,4.7435414E-2,-8.704506E-3],"split_indices":[3,0,3,0,0,0,2,0,0,0,0],"split_type":[0,0,0,0,0,0,0,0,0,0,0],"sum_hessian":[2.7156158E2,5.2203927E0,2.663412E2,3.3151627E0,1.9052299E0,2.6106744E2,5.2737646E0,2.5857687E2,2.490573E0,3.169991E0,2.1037736E0],"tree_param":{"num_deleted":"0","num_feature":"6","num_nodes":"11","size_leaf_vector":"1"}},{"base_weights":[1.9224921E-2,1.5112545E-1,-1.1613526E-1,6.636468E-2,6.55169E-1,-5.5036104E-1,-3.7294682E-2,1.934531E-3,6.145767E-2,-4.064147E-2,4.39177E-2,-4.646439E-2,-7.6755495E-3,1.1694772E-2,-7.502395E-3],"categories":[],"categories_nodes":[],"categories_segments":[],"categories_sizes":[],"default_left":[0,0,0,0,0,0,0,0,0,0,0,0,0,0,0],"id":53,"left_children":[1,3,5,7,9,11,13,-1,-1,-1,-1,-1,-1,-1,-1],"loss_changes":[4.8771605E0,5.864642E0,4.597593E0,3.7976565E0,7.1993284E0,2.9635634E0,3.558853E0,0E0,0E0,0E0,0E0,0E0,0E0,0E0,0E0],"parents":[2147483647,0,0,1,1,2,2,3,3,4,4,5,5,6,6],"right_children":[2,4,6,8,10,12,14,-1,-1,-1,-1,-1,-1,-1,-1],"split_conditions":[3.2295892E7,2.9415526E7,3.5522376E7,4E0,6.779258E-1,0E0,-2E0,1.934531E-3,6.145767E-2,-4.064147E-2,4.39177E-2,-4.646439E-2,-7.6755495E-3,1.1694772E-2,-7.502395E-3],"split_indices":[1,1,1,5,2,5,5,0,0,0,0,0,0,0,0],"split_type":[0,0,0,0,0,0,0,0,0,0,0,0,0,0,0],"sum_hessian":[2.711848E2,1.3728865E2,1.3389618E2,1.1849415E2,1.87945E1,1.9656193E1,1.1423998E2,1.1674883E2,1.7453175E0,2.1316469E0,1.6662853E1,9.368834E0,1.0287359E1,3.323351E1,8.100648E1],"tree_param":{"num_deleted":"0","num_feature":"6","num_nodes":"15","size_leaf_vector":"1"}},{"base_weights":[-4.764013E-3,3.562201E-1,-4.969161E-2,6.24505E-2,2.2591242E-1,-4.063575E-1,-2.2194747E-2,-2.9532671E-2,2.4883218E-2,-4.891382E-2,-4.931159E-3,2.7006282E-2,-2.653297E-3],"categories":[],"categories_nodes":[],"categories_segments":[],"categories_sizes":[],"default_left":[0,0,0,0,0,0,0,0,0,0,0,0,0],"id":54,"left_children":[1,3,5,-1,7,9,11,-1,-1,-1,-1,-1,-1],"loss_changes":[4.3706326E0,3.1881363E0,2.3404818E0,0E0,6.3410754E0,2.9112806E0,3.9081545E0,0E0,0E0,0E0,0E0,0E0,0E0],"parents":[2147483647,0,0,1,1,2,2,4,4,5,5,6,6],"right_children":[2,4,6,-1,8,10,12,-1,-1,-1,-1,-1,-1],"split_conditions":[5.7727957E-1,-1.0344784E-2,6.422896E-1,6.24505E-2,-4.5455354E-3,4.8111612E2,6.8413985E-1,-2.9532671E-2,2.4883218E-2,-4.891382E-2,-4.931159E-3,2.7006282E-2,-2.653297E-3],"split_indices":[2,3,2,0,3,0,2,0,0,0,0,0,0],"split_type":[0,0,0,0,0,0,0,0,0,0,0,0,0],"sum_hessian":[2.6739877E2,2.8829647E1,2.3856912E2,2.5784662E0,2.6251183E1,1.6089643E1,2.2247948E2,6.2618732E0,1.9989307E1,4.866456E0,1.1223188E1,1.0719897E1,2.1175958E2],"tree_param":{"num_deleted":"0","num_feature":"6","num_nodes":"13","size_leaf_vector":"1"}},{"base_weights":[-6.0978434E-3,2.063148E-1,-5.65419E-2,4.0791545E-2,9.0434074E-1,-1.8920383E-1,8.7998025E-2,2.5594402E-2,-7.1351277E-3,5.6658406E-2,-1.1906614E-2,-2.3959493E-2,6.1324365E-3,8.525423E-3,-2.142234E-2],"categories":[],"categories_nodes":[],"categories_segments":[],"categories_sizes":[],"default_left":[0,0,0,0,0,0,0,0,0,0,0,0,0,0,0],"id":55,"left_children":[1,3,5,7,9,11,13,-1,-1,-1,-1,-1,-1,-1,-1],"loss_changes":[2.869066E0,5.9008875E0,4.1638513E0,3.7545273E0,2.8327436E0,1.0286046E1,4.512802E0,0E0,0E0,0E0,0E0,0E0,0E0,0E0,0E0],"parents":[2147483647,0,0,1,1,2,2,3,3,4,4,5,5,6,6],"right_children":[2,4,6,8,10,12,14,-1,-1,-1,-1,-1,-1,-1,-1],"split_conditions":[4.3998654E2,4.1254764E2,0E0,-1E0,2E0,3.5522376E7,3.953866E7,2.5594402E-2,-7.1351277E-3,5.6658406E-2,-1.1906614E-2,-2.3959493E-2,6.1324365E-3,8.525423E-3,-2.142234E-2],"split_indices":[0,0,5,5,5,1,1,0,0,0,0,0,0,0,0],"split_type":[0,0,0,0,0,0,0,0,0,0,0,0,0,0,0],"sum_hessian":[2.6567404E2,5.039174E1,2.1528232E2,4.1588318E1,8.803421E0,1.12092415E2,1.03189896E2,1.1156312E1,3.0432005E1,7.34119E0,1.4622313E0,5.7804485E1,5.4287933E1,8.955231E1,1.363759E1],"tree_param":{"num_deleted":"0","num_feature":"6","num_nodes":"15","size_leaf_vector":"1"}},{"base_weights":[2.507002E-2,-3.5124287E-2,2.4282952E-1,2.4746537E-1,-7.774091E-2,8.14143E-1,1.6621003E-1,-8.047814E-3,2.3328831E-2,-3.0408285E-3,-5.5910747E-2,9.843394E-3,4.7517926E-2,2.63793E-3,3.1931754E-2],"categories":[],"categories_nodes":[],"categories_segments":[],"categories_sizes":[],"default_left":[0,0,0,0,0,0,0,0,0,0,0,0,0,0,0],"id":56,"left_children":[1,3,5,7,9,11,13,-1,-1,-1,-1,-1,-1,-1,-1],"loss_changes":[3.5161939E0,2.5545492E0,2.4069886E0,2.565312E0,3.166731E0,3.6880445E-1,2.7783947E0,0E0,0E0,0E0,0E0,0E0,0E0,0E0,0E0],"parents":[2147483647,0,0,1,1,2,2,3,3,4,4,5,5,6,6],"right_children":[2,4,6,8,10,12,14,-1,-1,-1,-1,-1,-1,-1,-1],"split_conditions":[1.3872801E-2,5.7727957E-1,2.4154632E7,-4.5455354E-3,1.3527539E-2,1.5452552E-2,5.684221E7,-8.047814E-3,2.3328831E-2,-3.0408285E-3,-5.5910747E-2,9.843394E-3,4.7517926E-2,2.63793E-3,3.1931754E-2],"split_indices":[3,2,1,3,3,3,1,0,0,0,0,0,0,0,0],"split_type":[0,0,0,0,0,0,0,0,0,0,0,0,0,0,0],"sum_hessian":[2.6659964E2,2.0952129E2,5.7078354E1,2.682679E1,1.826945E2,5.611369E0,5.1466984E1,9.459595E0,1.7367195E1,1.8081186E2,1.8826318E0,1.4564734E0,4.154896E0,4.239712E1,9.069863E0],"tree_param":{"num_deleted":"0","num_feature":"6","num_nodes":"15","size_leaf_vector":"1"}},{"base_weights":[-2.7104633E-2,-5.4641124E-2,3.066616E-1,-1.2202472E-1,6.755054E-2,6.99416E-1,-1.133974E-2,-1.4257349E-2,1.221531E-3,1.4958536E-3,5.364597E-2,9.509376E-3,4.2085245E-2,-3.633606E-2,2.1133414E-2],"categories":[],"categories_nodes":[],"categories_segments":[],"categories_sizes":[],"default_left":[0,0,0,0,0,0,0,0,0,0,0,0,0,0,0],"id":57,"left_children":[1,3,5,7,9,11,13,-1,-1,-1,-1,-1,-1,-1,-1],"loss_changes":[2.502372E0,2.0723057E0,2.6011858E0,3.8756409E0,3.3635697E0,5.1418686E-1,4.174997E0,0E0,0E0,0E0,0E0,0E0,0E0,0E0,0E0],"parents":[2147483647,0,0,1,1,2,2,3,3,4,4,5,5,6,6],"right_children":[2,4,6,8,10,12,14,-1,-1,-1,-1,-1,-1,-1,-1],"split_conditions":[6.5168776E7,6.2497556E-3,7.9434664E7,0E0,5E0,-3.0741211E-2,8.713974E7,-1.4257349E-2,1.221531E-3,1.4958536E-3,5.364597E-2,9.509376E-3,4.2085245E-2,-3.633606E-2,2.1133414E-2],"split_indices":[1,3,1,5,4,3,1,0,0,0,0,0,0,0,0],"split_type":[0,0,0,0,0,0,0,0,0,0,0,0,0,0,0],"sum_hessian":[2.694475E2,2.4968427E2,1.9763247E1,1.609361E2,8.874817E1,8.3057E0,1.1457545E1,7.5687836E1,8.524826E1,8.6538574E1,2.2095976E0,2.3242443E0,5.981456E0,4.0716863E0,7.385859E0],"tree_param":{"num_deleted":"0","num_feature":"6","num_nodes":"15","size_leaf_vector":"1"}},{"base_weights":[4.2380124E-2,-5.076841E-2,1.1363551E-1,1.509973E-1,-1.6129076E-1,-4.2549912E-2,1.3328972E-1,-2.2326603E-4,2.132049E-2,5.749325E-3,-1.6548736E-2,1.5884394E-2,-1.4632422E-4],"categories":[],"categories_nodes":[],"categories_segments":[],"categories_sizes":[],"default_left":[0,0,0,0,0,0,0,0,0,0,0,0,0],"id":58,"left_children":[1,3,5,7,9,-1,11,-1,-1,-1,-1,-1,-1],"loss_changes":[1.7797793E0,2.623012E0,2.9903593E0,1.7898765E0,3.5903568E0,0E0,3.7580416E0,0E0,0E0,0E0,0E0,0E0,0E0],"parents":[2147483647,0,0,1,1,2,2,3,3,4,4,6,6],"right_children":[2,4,6,8,10,-1,12,-1,-1,-1,-1,-1,-1],"split_conditions":[-1.4493596E-3,-1.4925402E-2,2.6390472E2,7.4848004E2,2.3152512E7,-4.2549912E-2,5.417561E2,-2.2326603E-4,2.132049E-2,5.749325E-3,-1.6548736E-2,1.5884394E-2,-1.4632422E-4],"split_indices":[3,3,0,0,1,0,0,0,0,0,0,0,0],"split_type":[0,0,0,0,0,0,0,0,0,0,0,0,0],"sum_hessian":[2.6627753E2,1.1553371E2,1.5074382E2,4.0759106E1,7.47746E1,2.165431E0,1.4857838E2,2.668178E1,1.4077327E1,2.8573668E1,4.620093E1,6.2559002E1,8.601939E1],"tree_param":{"num_deleted":"0","num_feature":"6","num_nodes":"13","size_leaf_vector":"1"}},{"base_weights":[6.330485E-2,9.2401005E-2,-1.8433222E-1,2.8622381E-2,2.6033604E-1,-4.0457466E-1,3.6474133E-1,3.1389946E-3,-4.1069284E-2,-2.376177E-2,1.710637E-2,-7.05165E-3,-3.441914E-2,-3.3581343E-3,2.8868169E-2],"categories":[],"categories_nodes":[],"categories_segments":[],"categories_sizes":[],"default_left":[0,0,0,0,0,0,0,0,0,0,0,0,0,0,0],"id":59,"left_children":[1,3,5,7,9,11,13,-1,-1,-1,-1,-1,-1,-1,-1],"loss_changes":[1.979485E0,2.6101527E0,3.6509535E0,5.2268305E0,4.2022524E0,1.4849005E0,8.4870887E-1,0E0,0E0,0E0,0E0,0E0,0E0,0E0,0E0],"parents":[2147483647,0,0,1,1,2,2,3,3,4,4,5,5,6,6],"right_children":[2,4,6,8,10,12,14,-1,-1,-1,-1,-1,-1,-1,-1],"split_conditions":[1.582834E0,1.077295E0,8.713974E7,1.0521019E0,2.6723278E7,1.8768176E0,1.9995241E0,3.1389946E-3,-4.1069284E-2,-2.376177E-2,1.710637E-2,-7.05165E-3,-3.441914E-2,-3.3581343E-3,2.8868169E-2],"split_indices":[2,2,1,2,1,2,2,0,0,0,0,0,0,0,0],"split_type":[0,0,0,0,0,0,0,0,0,0,0,0,0,0,0],"sum_hessian":[2.7136285E2,2.433923E2,2.7970549E1,1.7724744E2,6.614487E1,2.015087E1,7.819678E0,1.712903E2,5.9571447E0,6.1375833E0,6.0007282E1,1.1224671E1,8.926199E0,2.8053098E0,5.014368E0],"tree_param":{"num_deleted":"0","num_feature":"6","num_nodes":"15","size_leaf_vector":"1"}},{"base_weights":[-1.0114732E-2,-2.8431732E-2,7.220296E-1,-9.669384E-2,8.142681E-2,1.0472233E0,-2.2045864E-2,5.8431546E-3,-1.0637219E-2,2.4880124E-2,-3.3228632E-4,6.307876E-2,7.4762665E-3],"categories":[],"categories_nodes":[],"categories_segments":[],"categories_sizes":[],"default_left":[0,0,0,0,0,0,0,0,0,0,0,0,0],"id":60,"left_children":[1,3,5,7,9,11,-1,-1,-1,-1,-1,-1,-1],"loss_changes":[3.7001405E0,2.0224836E0,3.0087392E0,4.14256E0,3.7968416E0,8.811207E-1,0E0,0E0,0E0,0E0,0E0,0E0,0E0],"parents":[2147483647,0,0,1,1,2,2,3,3,4,4,5,5],"right_children":[2,4,6,8,10,12,-1,-1,-1,-1,-1,-1,-1],"split_conditions":[4.511272E-2,5.694669E2,9.250669E2,4.5364767E2,-1.446663E-2,7.8947574E-2,-2.2045864E-2,5.8431546E-3,-1.0637219E-2,2.4880124E-2,-3.3228632E-4,6.307876E-2,7.4762665E-3],"split_indices":[3,0,0,0,3,3,0,0,0,0,0,0,0],"split_type":[0,0,0,0,0,0,0,0,0,0,0,0,0],"sum_hessian":[2.7337906E2,2.676442E2,5.734834E0,1.6514743E2,1.0249679E2,4.559402E0,1.1754324E0,5.8143814E1,1.0700361E2,1.7090038E1,8.5406746E1,3.3533468E0,1.206055E0],"tree_param":{"num_deleted":"0","num_feature":"6","num_nodes":"13","size_leaf_vector":"1"}},{"base_weights":[4.4102047E-2,4.0752485E-1,3.3987842E-3,1.6008139E-1,6.8036234E-1,-8.768582E-1,2.3379538E-2,2.539329E-2,-4.7027554E-2,4.1446444E-2,-8.781555E-3,-4.5157666E-3,-6.333104E-2,-2.1983658E-4,1.9117827E-2],"categories":[],"categories_nodes":[],"categories_segments":[],"categories_sizes":[],"default_left":[0,0,0,0,0,0,0,0,0,0,0,0,0,0,0],"id":61,"left_children":[1,3,5,7,9,11,13,-1,-1,-1,-1,-1,-1,-1,-1],"loss_changes":[4.0770817E0,1.7652893E0,4.3990974E0,6.550794E0,1.7855153E0,1.5874786E0,2.438598E0,0E0,0E0,0E0,0E0,0E0,0E0,0E0,0E0],"parents":[2147483647,0,0,1,1,2,2,3,3,4,4,5,5,6,6],"right_children":[2,4,6,8,10,12,14,-1,-1,-1,-1,-1,-1,-1,-1],"split_conditions":[-2.0286568E-2,5.594443E2,-1.9230828E-2,5.178269E2,1.1366494E3,4.6931552E2,1.1912483E3,2.539329E-2,-4.7027554E-2,4.1446444E-2,-8.781555E-3,-4.5157666E-3,-6.333104E-2,-2.1983658E-4,1.9117827E-2],"split_indices":[3,0,3,0,0,0,0,0,0,0,0,0,0,0,0],"split_type":[0,0,0,0,0,0,0,0,0,0,0,0,0,0,0],"sum_hessian":[2.7471194E2,2.6761082E1,2.4795087E2,1.4865709E1,1.1895372E1,4.551429E0,2.4339944E2,1.1705503E1,3.1602058E0,1.0163082E1,1.7322898E0,1.9162157E0,2.6352131E0,2.2683553E2,1.6563915E1],"tree_param":{"num_deleted":"0","num_feature":"6","num_nodes":"15","size_leaf_vector":"1"}},{"base_weights":[-1.9234365E-2,-3.3131063E-2,5.357715E-2,1.9652723E-1,-8.5115865E-2,-1.0559254E-2,2.3945265E-2,-1.1233855E-4,-1.4187174E-2],"categories":[],"categories_nodes":[],"categories_segments":[],"categories_sizes":[],"default_left":[0,0,0,0,0,0,0,0,0],"id":62,"left_children":[1,3,-1,5,7,-1,-1,-1,-1],"loss_changes":[4.1925488E0,3.261249E0,0E0,5.91096E0,3.6584492E0,0E0,0E0,0E0,0E0],"parents":[2147483647,0,0,1,1,3,3,4,4],"right_children":[2,4,-1,6,8,-1,-1,-1,-1],"split_conditions":[4E0,4.3998654E2,5.357715E-2,3.0123676E2,1.1247481E0,-1.0559254E-2,2.3945265E-2,-1.1233855E-4,-1.4187174E-2],"split_indices":[5,0,0,0,2,0,0,0,0],"split_type":[0,0,0,0,0,0,0,0,0],"sum_hessian":[2.7324408E2,2.7076413E2,2.479957E0,4.9463585E1,2.2130054E2,2.0343168E1,2.9120419E1,1.5686603E2,6.44345E1],"tree_param":{"num_deleted":"0","num_feature":"6","num_nodes":"9","size_leaf_vector":"1"}},{"base_weights":[1.5854567E-2,4.1913707E-2,-4.0072593E-1,-4.1786394E-1,8.1458196E-2,-1.048391E0,7.662454E-2,1.5371655E-3,-3.2012504E-2,5.533389E-2,3.0400623E-3,-1.6488275E-2,-5.6468647E-2,1.1079653E-2,-2.3194369E-2],"categories":[],"categories_nodes":[],"categories_segments":[],"categories_sizes":[],"default_left":[0,0,0,0,0,0,0,0,0,0,0,0,0,0,0],"id":63,"left_children":[1,3,5,7,9,11,13,-1,-1,-1,-1,-1,-1,-1,-1],"loss_changes":[2.9200976E0,4.6268096E0,4.977384E0,2.0317736E0,4.8763986E0,2.2661686E-2,8.903401E-1,0E0,0E0,0E0,0E0,0E0,0E0,0E0,0E0],"parents":[2147483647,0,0,1,1,2,2,3,3,4,4,5,5,6,6],"right_children":[2,4,6,8,10,12,14,-1,-1,-1,-1,-1,-1,-1,-1],"split_conditions":[1.837545E0,3.0123676E2,7.509723E7,7.870699E-1,3.6320087E2,4.055136E7,1.3174148E8,1.5371655E-3,-3.2012504E-2,5.533389E-2,3.0400623E-3,-1.6488275E-2,-5.6468647E-2,1.1079653E-2,-2.3194369E-2],"split_indices":[2,0,1,2,0,1,1,0,0,0,0,0,0,0,0],"split_type":[0,0,0,0,0,0,0,0,0,0,0,0,0,0,0],"sum_hessian":[2.6644415E2,2.5160446E2,1.4839697E1,1.916849E1,2.3243597E2,5.7889833E0,9.050714E0,6.638589E0,1.2529901E1,3.5524247E0,2.2888356E2,1.0999783E0,4.689005E0,7.6018763E0,1.4488375E0],"tree_param":{"num_deleted":"0","num_feature":"6","num_nodes":"15","size_leaf_vector":"1"}},{"base_weights":[3.0155191E-2,-4.7735307E-2,1.5105745E-1,2.2166772E-2,-2.9164737E-1,-3.1842119E-1,2.0497596E-1,-1.9667542E-3,3.4820173E-2,-2.7819214E-2,1.2300081E-2,3.7735477E-2,-2.608045E-2,3.1386342E-2,5.5689346E-3],"categories":[],"categories_nodes":[],"categories_segments":[],"categories_sizes":[],"default_left":[0,0,0,0,0,0,0,0,0,0,0,0,0,0,0],"id":64,"left_children":[1,3,5,7,9,11,13,-1,-1,-1,-1,-1,-1,-1,-1],"loss_changes":[2.5637736E0,2.8345268E0,2.763968E0,5.4119053E0,5.4058456E0,2.8737922E0,3.737999E0,0E0,0E0,0E0,0E0,0E0,0E0,0E0,0E0],"parents":[2147483647,0,0,1,1,2,2,3,3,4,4,5,5,6,6],"right_children":[2,4,6,8,10,12,14,-1,-1,-1,-1,-1,-1,-1,-1],"split_conditions":[5.663097E2,5.417561E2,2.0717004E7,5.341896E2,2.9415526E7,1.4490129E7,2.5889058E7,-1.9667542E-3,3.4820173E-2,-2.7819214E-2,1.2300081E-2,3.7735477E-2,-2.608045E-2,3.1386342E-2,5.5689346E-3],"split_indices":[0,0,1,0,1,1,1,0,0,0,0,0,0,0,0],"split_type":[0,0,0,0,0,0,0,0,0,0,0,0,0,0,0],"sum_hessian":[2.7047983E2,1.6486913E2,1.05610695E2,1.2885115E2,3.6017975E1,1.037428E1,9.523642E1,1.1894317E2,9.907981E0,2.4110956E1,1.1907018E1,1.2194494E0,9.154831E0,1.6228851E1,7.900756E1],"tree_param":{"num_deleted":"0","num_feature":"6","num_nodes":"15","size_leaf_vector":"1"}},{"base_weights":[2.859084E-2,-1.0455921E-2,2.6790208E-1,-2.8828118E-2,5.977453E-1,3.8369578E-1,-1.785378E-1,-2.1958133E-2,3.4761513E-5,5.1146474E-2,4.038758E-3,1.1442018E-2,4.6587594E-2,-4.7599576E-2,1.9885197E-2],"categories":[],"categories_nodes":[],"categories_segments":[],"categories_sizes":[],"default_left":[0,0,0,0,0,0,0,0,0,0,0,0,0,0,0],"id":65,"left_children":[1,3,5,7,9,11,13,-1,-1,-1,-1,-1,-1,-1,-1],"loss_changes":[2.5145564E0,2.6102283E0,2.0196548E0,2.7406678E0,1.4231193E0,2.3572803E0,4.147352E0,0E0,0E0,0E0,0E0,0E0,0E0,0E0,0E0],"parents":[2147483647,0,0,1,1,2,2,3,3,4,4,5,5,6,6],"right_children":[2,4,6,8,10,12,14,-1,-1,-1,-1,-1,-1,-1,-1],"split_conditions":[5.385099E7,3E0,8.9969586E2,3.0123676E2,5.365059E2,6.076113E2,1.0046645E3,-2.1958133E-2,3.4761513E-5,5.1146474E-2,4.038758E-3,1.1442018E-2,4.6587594E-2,-4.7599576E-2,1.9885197E-2],"split_indices":[1,5,0,0,0,0,0,0,0,0,0,0,0,0,0],"split_type":[0,0,0,0,0,0,0,0,0,0,0,0,0,0,0],"sum_hessian":[2.6779996E2,2.310564E2,3.674357E1,2.252061E2,5.8502975E0,2.9287718E1,7.4558506E0,1.418458E1,2.1102153E2,2.673097E0,3.1772006E0,2.3940722E1,5.346997E0,2.9048202E0,4.55103E0],"tree_param":{"num_deleted":"0","num_feature":"6","num_nodes":"15","size_leaf_vector":"1"}},{"base_weights":[-2.190358E-2,-7.403553E-1,-9.858414E-3,-5.402117E-2,-5.309695E-3,4.683379E-1,-3.3277918E-2,5.6923903E-3,5.461086E-2,-3.8301677E-2,-9.939001E-4],"categories":[],"categories_nodes":[],"categories_segments":[],"categories_sizes":[],"default_left":[0,0,0,0,0,0,0,0,0,0,0],"id":66,"left_children":[1,3,5,-1,-1,7,9,-1,-1,-1,-1],"loss_changes":[2.3846233E0,8.65227E-1,3.0713222E0,0E0,0E0,2.70769E0,2.5479834E0,0E0,0E0,0E0,0E0],"parents":[2147483647,0,0,1,1,2,2,5,5,6,6],"right_children":[2,4,6,-1,-1,8,10,-1,-1,-1,-1],"split_conditions":[3.882603E-1,3E0,5.049348E-1,-5.402117E-2,-5.309695E-3,4.829267E-1,5.4013634E-1,5.6923903E-3,5.461086E-2,-3.8301677E-2,-9.939001E-4],"split_indices":[2,4,2,0,0,2,2,0,0,0,0],"split_type":[0,0,0,0,0,0,0,0,0,0,0],"sum_hessian":[2.753991E2,3.5440507E0,2.7185504E2,1.8488848E0,1.6951659E0,1.1805432E1,2.6004962E2,8.282038E0,3.5233953E0,3.6614475E0,2.5638818E2],"tree_param":{"num_deleted":"0","num_feature":"6","num_nodes":"11","size_leaf_vector":"1"}},{"base_weights":[-1.719542E-2,8.3864623E-1,-3.509189E-2,4.9255386E-2,1.5016183E-2,-4.8876923E-2,-1.922726E-2,-2.314414E-3,1.6017657E-2],"categories":[],"categories_nodes":[],"categories_segments":[],"categories_sizes":[],"default_left":[0,0,0,0,0,0,0,0,0],"id":67,"left_children":[1,3,5,-1,-1,-1,7,-1,-1],"loss_changes":[4.197465E0,1.4677858E-1,3.980932E0,0E0,0E0,0E0,2.4417813E0,0E0,0E0],"parents":[2147483647,0,0,1,1,2,2,6,6],"right_children":[2,4,6,-1,-1,-1,8,-1,-1],"split_conditions":[-3.514053E-2,8.116633E2,-3.0741211E-2,4.9255386E-2,1.5016183E-2,-4.8876923E-2,1.1912483E3,-2.314414E-3,1.6017657E-2],"split_indices":[3,0,3,0,0,0,0,0,0],"split_type":[0,0,0,0,0,0,0,0,0],"sum_hessian":[2.7112634E2,4.6140313E0,2.6651233E2,2.9747362E0,1.6392951E0,3.4085438E0,2.631038E2,2.4448459E2,1.8619184E1],"tree_param":{"num_deleted":"0","num_feature":"6","num_nodes":"9","size_leaf_vector":"1"}},{"base_weights":[-2.6312815E-3,-8.809553E-2,9.4051726E-2,-8.095582E-1,-4.3448944E-2,3.4706855E-1,-6.1779816E-2,3.381389E-3,-5.3333033E-2,1.3464176E-3,-1.8540941E-2,3.740922E-2,-3.268751E-3,-1.5253556E-2,1.0429236E-2],"categories":[],"categories_nodes":[],"categories_segments":[],"categories_sizes":[],"default_left":[0,0,0,0,0,0,0,0,0,0,0,0,0,0,0],"id":68,"left_children":[1,3,5,7,9,11,13,-1,-1,-1,-1,-1,-1,-1,-1],"loss_changes":[2.2289126E0,4.5763006E0,5.012243E0,1.9409714E0,3.1405513E0,8.055565E0,5.2721004E0,0E0,0E0,0E0,0E0,0E0,0E0,0E0,0E0],"parents":[2147483647,0,0,1,1,2,2,3,3,4,4,5,5,6,6],"right_children":[2,4,6,8,10,12,14,-1,-1,-1,-1,-1,-1,-1,-1],"split_conditions":[0E0,1.6700285E7,2.3976624E7,5.130412E2,1.0438711E3,5.417561E2,5.5763544E2,3.381389E-3,-5.3333033E-2,1.3464176E-3,-1.8540941E-2,3.740922E-2,-3.268751E-3,-1.5253556E-2,1.0429236E-2],"split_indices":[5,1,1,0,0,0,0,0,0,0,0,0,0,0,0],"split_type":[0,0,0,0,0,0,0,0,0,0,0,0,0,0,0],"sum_hessian":[2.677454E2,1.4216528E2,1.255801E2,7.286536E0,1.3487874E2,4.7396797E1,7.8183304E1,1.8186387E0,5.4678974E0,1.11768684E2,2.3110056E1,2.3615686E1,2.3781113E1,4.1084484E1,3.7098816E1],"tree_param":{"num_deleted":"0","num_feature":"6","num_nodes":"15","size_leaf_vector":"1"}},{"base_weights":[-2.8953623E-2,-7.143346E-1,-1.5048246E-2,-4.6233263E-2,-6.282953E-3,9.5510334E-1,-3.447891E-2,6.488429E-2,2.2510868E-2,-2.5376126E-3,2.3320114E-2],"categories":[],"categories_nodes":[],"categories_segments":[],"categories_sizes":[],"default_left":[0,0,0,0,0,0,0,0,0,0,0],"id":69,"left_children":[1,3,5,-1,-1,7,9,-1,-1,-1,-1],"loss_changes":[2.5584788E0,5.448766E-1,5.0329065E0,0E0,0E0,3.225994E-1,2.1510687E0,0E0,0E0,0E0,0E0],"parents":[2147483647,0,0,1,1,2,2,5,5,6,6],"right_children":[2,4,6,-1,-1,8,10,-1,-1,-1,-1],"split_conditions":[1.2200358E7,5.374247E2,1.4022812E7,-4.6233263E-2,-6.282953E-3,1E0,8.713974E7,6.488429E-2,2.2510868E-2,-2.5376126E-3,2.3320114E-2],"split_indices":[1,0,1,0,0,4,1,0,0,0,0],"split_type":[0,0,0,0,0,0,0,0,0,0,0],"sum_hessian":[2.6858008E2,4.339107E0,2.64241E2,2.7763698E0,1.5627371E0,4.242907E0,2.5999808E2,1.5922537E0,2.6506536E0,2.5268709E2,7.310982E0],"tree_param":{"num_deleted":"0","num_feature":"6","num_nodes":"11","size_leaf_vector":"1"}},{"base_weights":[8.032477E-3,1.5833013E-1,-4.7816537E-2,-6.4788795E-1,2.2058026E-1,-2.561988E-1,2.2937743E-2,-5.329129E-2,-5.483697E-3,-7.310512E-3,2.1487268E-2,-5.4521817E-3,-5.559617E-2,-7.61821E-3,8.1579285E-3],"categories":[],"categories_nodes":[],"categories_segments":[],"categories_sizes":[],"default_left":[0,0,0,0,0,0,0,0,0,0,0,0,0,0,0],"id":70,"left_children":[1,3,5,7,9,11,13,-1,-1,-1,-1,-1,-1,-1,-1],"loss_changes":[2.2817867E0,3.8383527E0,2.929616E0,1.1274457E0,5.3642673E0,6.218618E0,3.6863067E0,0E0,0E0,0E0,0E0,0E0,0E0,0E0,0E0],"parents":[2147483647,0,0,1,1,2,2,3,3,4,4,5,5,6,6],"right_children":[2,4,6,8,10,12,14,-1,-1,-1,-1,-1,-1,-1,-1],"split_conditions":[2.3976624E7,4.1053566E-1,8.405544E-1,1.4363212E7,0E0,8.1682223E-1,-1.4493596E-3,-5.329129E-2,-5.483697E-3,-7.310512E-3,2.1487268E-2,-5.4521817E-3,-5.559617E-2,-7.61821E-3,8.1579285E-3],"split_indices":[1,2,2,1,5,2,3,0,0,0,0,0,0,0,0],"split_type":[0,0,0,0,0,0,0,0,0,0,0,0,0,0,0],"sum_hessian":[2.699343E2,7.263316E1,1.9730115E2,4.5318713E0,6.810129E1,4.9346664E1,1.4795448E2,1.9991646E0,2.5327067E0,2.4841093E1,4.3260197E1,4.3067898E1,6.278766E0,6.571366E1,8.224082E1],"tree_param":{"num_deleted":"0","num_feature":"6","num_nodes":"15","size_leaf_vector":"1"}},{"base_weights":[-1.729785E-2,-2.7096588E-2,4.3692186E-2,-8.9577034E-2,1.2048508E-1,-9.03651E-3,4.942139E-3,2.5586141E-2,-1.3300235E-3],"categories":[],"categories_nodes":[],"categories_segments":[],"categories_sizes":[],"default_left":[0,0,0,0,0,0,0,0,0],"id":71,"left_children":[1,3,-1,5,7,-1,-1,-1,-1],"loss_changes":[2.3812673E0,2.48225E0,0E0,3.2618606E0,4.6257315E0,0E0,0E0,0E0,0E0],"parents":[2147483647,0,0,1,1,3,3,4,4],"right_children":[2,4,-1,6,8,-1,-1,-1,-1],"split_conditions":[4E0,7.679211E2,4.3692186E-2,7.1303993E-3,9.426315E2,-9.03651E-3,4.942139E-3,2.5586141E-2,-1.3300235E-3],"split_indices":[5,0,0,3,0,0,0,0,0],"split_type":[0,0,0,0,0,0,0,0,0],"sum_hessian":[2.689923E2,2.6702576E2,1.9665452E0,1.878783E2,7.914747E1,1.2664916E2,6.1229134E1,2.0948029E1,5.8199436E1],"tree_param":{"num_deleted":"0","num_feature":"6","num_nodes":"9","size_leaf_vector":"1"}},{"base_weights":[-5.7618003E-2,-1.0069472E-1,1.805751E-1,-2.2020535E-1,-2.3257712E-2,4.9097973E-1,-9.765966E-2,4.1785125E-2,-1.2619902E-2,2.4010837E-3,-1.6916154E-2,4.9468882E-2,1.1276473E-2,-1.361004E-2,4.1302305E-2],"categories":[],"categories_nodes":[],"categories_segments":[],"categories_sizes":[],"default_left":[0,0,0,0,0,0,0,0,0,0,0,0,0,0,0],"id":72,"left_children":[1,3,5,7,9,11,13,-1,-1,-1,-1,-1,-1,-1,-1],"loss_changes":[2.7755747E0,2.1069624E0,3.6334274E0,3.2571793E0,3.1514726E0,2.3949604E0,3.8888643E0,0E0,0E0,0E0,0E0,0E0,0E0,0E0,0E0],"parents":[2147483647,0,0,1,1,2,2,3,3,4,4,5,5,6,6],"right_children":[2,4,6,8,10,12,14,-1,-1,-1,-1,-1,-1,-1,-1],"split_conditions":[1E0,-3.1899633E-3,2E0,2.5943173E2,1.0438711E3,-7.1344683E-3,1.6152635E-2,4.1785125E-2,-1.2619902E-2,2.4010837E-3,-1.6916154E-2,4.9468882E-2,1.1276473E-2,-1.361004E-2,4.1302305E-2],"split_indices":[5,3,4,0,0,3,3,0,0,0,0,0,0,0,0],"split_type":[0,0,0,0,0,0,0,0,0,0,0,0,0,0,0],"sum_hessian":[2.6773654E2,2.2722131E2,4.0515236E1,8.861528E1,1.3860603E2,1.8789095E1,2.172614E1,1.8833327E0,8.673194E1,1.1372486E2,2.4881168E1,5.581794E0,1.3207301E1,1.8866491E1,2.8596487E0],"tree_param":{"num_deleted":"0","num_feature":"6","num_nodes":"15","size_leaf_vector":"1"}},{"base_weights":[7.692432E-2,-8.939647E-3,2.1263817E-1,2.9937673E-1,-1.0233356E-1,3.2992506E-1,1.7100165E-2,6.834853E-3,6.751364E-2,7.0051514E-3,-1.322137E-2,1.4328499E-3,2.2780623E-2,-3.3477258E-2,9.189631E-3],"categories":[],"categories_nodes":[],"categories_segments":[],"categories_sizes":[],"default_left":[0,0,0,0,0,0,0,0,0,0,0,0,0,0,0],"id":73,"left_children":[1,3,5,7,9,11,13,-1,-1,-1,-1,-1,-1,-1,-1],"loss_changes":[3.1019666E0,4.7501698E0,2.3595748E0,6.373494E0,5.0098076E0,2.4258585E0,4.6695223E0,0E0,0E0,0E0,0E0,0E0,0E0,0E0,0E0],"parents":[2147483647,0,0,1,1,2,2,3,3,4,4,5,5,6,6],"right_children":[2,4,6,8,10,12,14,-1,-1,-1,-1,-1,-1,-1,-1],"split_conditions":[5.694669E2,7.02812E-1,1.0438711E3,6.779258E-1,4.6286282E2,1E0,7.125546E-1,6.834853E-3,6.751364E-2,7.0051514E-3,-1.322137E-2,1.4328499E-3,2.2780623E-2,-3.3477258E-2,9.189631E-3],"split_indices":[0,2,0,2,0,4,2,0,0,0,0,0,0,0,0],"split_type":[0,0,0,0,0,0,0,0,0,0,0,0,0,0,0],"sum_hessian":[2.6503314E2,1.6290187E2,1.0213126E2,3.736041E1,1.25541466E2,6.340977E1,3.872149E1,3.333084E1,4.0295687E0,5.035836E1,7.5183105E1,1.9028103E1,4.4381668E1,6.974644E0,3.1746845E1],"tree_param":{"num_deleted":"0","num_feature":"6","num_nodes":"15","size_leaf_vector":"1"}},{"base_weights":[1.9401437E-2,3.9610997E-2,-3.920644E-1,8.455473E-1,2.752386E-2,-8.9635444E-1,-3.5211325E-2,4.9787655E-2,1.4249406E-2,-4.272545E-2,1.7734895E-3,-6.184529E-2,-1.3480688E-2,3.4446046E-2,-2.1615734E-2],"categories":[],"categories_nodes":[],"categories_segments":[],"categories_sizes":[],"default_left":[0,0,0,0,0,0,0,0,0,0,0,0,0,0,0],"id":74,"left_children":[1,3,5,7,9,11,13,-1,-1,-1,-1,-1,-1,-1,-1],"loss_changes":[2.260475E0,2.492352E0,2.2594428E0,3.4671783E-2,1.8206964E0,7.83793E-1,2.7409363E0,0E0,0E0,0E0,0E0,0E0,0E0,0E0,0E0],"parents":[2147483647,0,0,1,1,2,2,3,3,4,4,5,5,6,6],"right_children":[2,4,6,8,10,12,14,-1,-1,-1,-1,-1,-1,-1,-1],"split_conditions":[7.9434664E7,-3.514053E-2,8.713974E7,1.7640032E0,9.357138E6,-1.3953589E-2,9.580847E7,4.9787655E-2,1.4249406E-2,-4.272545E-2,1.7734895E-3,-6.184529E-2,-1.3480688E-2,3.4446046E-2,-2.1615734E-2],"split_indices":[1,3,1,2,1,3,1,0,0,0,0,0,0,0,0],"split_type":[0,0,0,0,0,0,0,0,0,0,0,0,0,0,0],"sum_hessian":[2.6896973E2,2.5723892E2,1.1730817E1,2.7820978E0,2.544568E2,4.234693E0,7.4961243E0,1.5818685E0,1.2002293E0,1.3206302E0,2.5313618E2,2.1130009E0,2.1216922E0,2.394607E0,5.101517E0],"tree_param":{"num_deleted":"0","num_feature":"6","num_nodes":"15","size_leaf_vector":"1"}},{"base_weights":[-1.2517247E-2,-3.9258245E-1,1.45367915E-2,3.8986647E-1,-7.0568407E-1,4.558363E-1,-4.1457005E-3,3.7084796E-2,-1.9569103E-2,1.3446826E-2,-4.871395E-2,-6.468029E-3,6.1770704E-2,-1.2872443E-3,1.4355523E-2],"categories":[],"categories_nodes":[],"categories_segments":[],"categories_sizes":[],"default_left":[0,0,0,0,0,0,0,0,0,0,0,0,0,0,0],"id":75,"left_children":[1,3,5,7,9,11,13,-1,-1,-1,-1,-1,-1,-1,-1],"loss_changes":[2.7991018E0,4.7066355E0,2.1008053E0,1.888308E0,3.7371302E0,4.881102E0,1.5501232E0,0E0,0E0,0E0,0E0,0E0,0E0,0E0,0E0],"parents":[2147483647,0,0,1,1,2,2,3,3,4,4,5,5,6,6],"right_children":[2,4,6,8,10,12,14,-1,-1,-1,-1,-1,-1,-1,-1],"split_conditions":[2.8617493E2,-1E0,3.6320087E2,9.505758E-3,2.5943173E2,3.0123676E2,2.8659122E-2,3.7084796E-2,-1.9569103E-2,1.3446826E-2,-4.871395E-2,-6.468029E-3,6.1770704E-2,-1.2872443E-3,1.4355523E-2],"split_indices":[0,5,0,3,0,0,3,0,0,0,0,0,0,0,0],"split_type":[0,0,0,0,0,0,0,0,0,0,0,0,0,0,0],"sum_hessian":[2.706703E2,1.708884E1,2.5358144E2,4.813816E0,1.2275024E1,9.349016E0,2.4423242E2,3.3539965E0,1.4598198E0,2.6517265E0,9.623299E0,5.8167133E0,3.5323033E0,2.2821956E2,1.6012863E1],"tree_param":{"num_deleted":"0","num_feature":"6","num_nodes":"15","size_leaf_vector":"1"}},{"base_weights":[4.1066494E-2,-5.576862E-2,1.5492843E-1,9.995745E-3,-4.3778256E-1,-1.5571755E-1,2.088348E-1,-4.9718744E-3,2.2444418E-2,-3.9898794E-2,-2.2897213E-3,8.101597E-3,-5.1322233E-2,1.84249E-2,3.6162378E-3],"categories":[],"categories_nodes":[],"categories_segments":[],"categories_sizes":[],"default_left":[0,0,0,0,0,0,0,0,0,0,0,0,0,0,0],"id":76,"left_children":[1,3,5,7,9,11,13,-1,-1,-1,-1,-1,-1,-1,-1],"loss_changes":[2.9575987E0,3.654024E0,2.0953882E0,6.0441675E0,2.979042E0,5.364605E0,2.2705793E0,0E0,0E0,0E0,0E0,0E0,0E0,0E0,0E0],"parents":[2147483647,0,0,1,1,2,2,3,3,4,4,5,5,6,6],"right_children":[2,4,6,8,10,12,14,-1,-1,-1,-1,-1,-1,-1,-1],"split_conditions":[0E0,1.0671599E3,-1.34001905E-2,7.679211E2,1.1912483E3,-1.5503972E-2,5.422473E2,-4.9718744E-3,2.2444418E-2,-3.9898794E-2,-2.2897213E-3,8.101597E-3,-5.1322233E-2,1.84249E-2,3.6162378E-3],"split_indices":[5,0,3,0,0,3,0,0,0,0,0,0,0,0,0],"split_type":[0,0,0,0,0,0,0,0,0,0,0,0,0,0,0],"sum_hessian":[2.66459E2,1.4427174E2,1.22187256E2,1.23913635E2,2.0358114E1,1.7788555E1,1.043987E2,9.98024E1,2.4111237E1,1.0069579E1,1.0288534E1,1.3628937E1,4.159619E0,4.733541E1,5.7063286E1],"tree_param":{"num_deleted":"0","num_feature":"6","num_nodes":"15","size_leaf_vector":"1"}},{"base_weights":[5.031965E-2,1.4580366E-1,-4.0462926E-2,-2.7580008E-1,1.8340945E-1,-5.226635E-2,-2.7600154E-3,5.3652884E-3,-3.7425283E-2,1.1262759E-2,-2.4880305E-2,1.8558165E-2,-2.6704555E-3],"categories":[],"categories_nodes":[],"categories_segments":[],"categories_sizes":[],"default_left":[0,0,0,0,0,0,0,0,0,0,0,0,0],"id":77,"left_children":[1,3,5,7,9,-1,11,-1,-1,-1,-1,-1,-1],"loss_changes":[2.35598E0,2.1489913E0,5.292123E0,2.1154847E0,3.5920424E0,0E0,2.5899978E0,0E0,0E0,0E0,0E0,0E0,0E0],"parents":[2147483647,0,0,1,1,2,2,3,3,4,4,6,6],"right_children":[2,4,6,8,10,-1,12,-1,-1,-1,-1,-1,-1],"split_conditions":[5.422473E2,2.675691E2,5.4569275E2,5.145989E-3,1.8768176E0,-5.226635E-2,-1.7123444E-2,5.3652884E-3,-3.7425283E-2,1.1262759E-2,-2.4880305E-2,1.8558165E-2,-2.6704555E-3],"split_indices":[0,0,0,3,2,0,3,0,0,0,0,0,0],"split_type":[0,0,0,0,0,0,0,0,0,0,0,0,0],"sum_hessian":[2.701125E2,1.3135199E2,1.387605E2,1.0238032E1,1.2111397E2,4.0515876E0,1.3470891E2,6.081918E0,4.1561146E0,1.1473329E2,6.380673E0,1.5315104E1,1.1939381E2],"tree_param":{"num_deleted":"0","num_feature":"6","num_nodes":"13","size_leaf_vector":"1"}},{"base_weights":[1.6695626E-2,-8.0020696E-2,1.2456706E-1,4.8634788E-1,-1.4869177E-1,4.77648E-2,6.2012124E-1,7.911242E-3,5.9972674E-2,-4.49646E-3,-2.0241003E-2,-4.2318877E-2,4.920469E-3,4.8366774E-2,1.6246903E-3],"categories":[],"categories_nodes":[],"categories_segments":[],"categories_sizes":[],"default_left":[0,0,0,0,0,0,0,0,0,0,0,0,0,0,0],"id":78,"left_children":[1,3,5,7,9,11,13,-1,-1,-1,-1,-1,-1,-1,-1],"loss_changes":[2.766606E0,5.5144258E0,4.739262E0,3.4054487E0,1.8533611E0,5.0450015E0,3.3820486E0,0E0,0E0,0E0,0E0,0E0,0E0,0E0,0E0],"parents":[2147483647,0,0,1,1,2,2,3,3,4,4,5,5,6,6],"right_children":[2,4,6,8,10,12,14,-1,-1,-1,-1,-1,-1,-1,-1],"split_conditions":[0E0,3.6320087E2,1.6152635E-2,2.968068E2,1.0528013E3,2.8617493E2,2.392346E-2,7.911242E-3,5.9972674E-2,-4.49646E-3,-2.0241003E-2,-4.2318877E-2,4.920469E-3,4.8366774E-2,1.6246903E-3],"split_indices":[5,0,3,0,0,0,3,0,0,0,0,0,0,0,0],"split_type":[0,0,0,0,0,0,0,0,0,0,0,0,0,0,0],"sum_hessian":[2.6322476E2,1.3892465E2,1.2430011E2,1.4365134E1,1.24559525E2,1.0857003E2,1.5730077E1,1.0675069E1,3.6900647E0,1.0241413E2,2.2145395E1,4.9775777E0,1.0359245E2,9.481517E0,6.24856E0],"tree_param":{"num_deleted":"0","num_feature":"6","num_nodes":"15","size_leaf_vector":"1"}},{"base_weights":[-3.0587604E-2,-7.885306E-3,-5.751549E-1,-3.0499663E-2,8.514308E-1,7.983742E-2,-8.0269986E-1,-7.165674E-3,2.5264088E-3,5.927031E-2,-3.3601027E-3,-3.1077592E-2,4.0851012E-2,-4.7006015E-2,-1.2619774E-2],"categories":[],"categories_nodes":[],"categories_segments":[],"categories_sizes":[],"default_left":[0,0,0,0,0,0,0,0,0,0,0,0,0,0,0],"id":79,"left_children":[1,3,5,7,9,11,13,-1,-1,-1,-1,-1,-1,-1,-1],"loss_changes":[3.3163877E0,5.056813E0,1.6642306E0,2.3218517E0,2.126892E0,2.409377E0,3.7213707E-1,0E0,0E0,0E0,0E0,0E0,0E0,0E0,0E0],"parents":[2147483647,0,0,1,1,2,2,3,3,4,4,5,5,6,6],"right_children":[2,4,6,8,10,12,14,-1,-1,-1,-1,-1,-1,-1,-1],"split_conditions":[1.4302325E3,1.1912483E3,7.611273E-1,8.405544E-1,1.2298027E0,1.4601329E3,1.51E3,-7.165674E-3,2.5264088E-3,5.927031E-2,-3.3601027E-3,-3.1077592E-2,4.0851012E-2,-4.7006015E-2,-1.2619774E-2],"split_indices":[0,0,2,2,2,0,0,0,0,0,0,0,0,0,0],"split_type":[0,0,0,0,0,0,0,0,0,0,0,0,0,0,0],"sum_hessian":[2.6761945E2,2.5788312E2,9.73633E0,2.522103E2,5.6728334E0,2.6776888E0,7.0586405E0,1.0510521E2,1.4710509E2,3.9473455E0,1.725488E0,1.4525356E0,1.2251532E0,5.0813713E0,1.9772695E0],"tree_param":{"num_deleted":"0","num_feature":"6","num_nodes":"15","size_leaf_vector":"1"}},{"base_weights":[-4.6587646E-2,-2.7181417E-1,-2.1703406E-3,-3.4342262E-1,4.1797668E-2,4.7544268E-1,-4.2926136E-2,-4.695661E-2,-1.0914614E-2,3.3436954E-2,-7.408879E-3,9.239716E-3,-5.922442E-3],"categories":[],"categories_nodes":[],"categories_segments":[],"categories_sizes":[],"default_left":[0,0,0,0,0,0,0,0,0,0,0,0,0],"id":80,"left_children":[1,3,5,7,-1,9,11,-1,-1,-1,-1,-1,-1],"loss_changes":[2.6655245E0,3.7688706E0,4.3731604E0,2.9209723E0,0E0,2.2283762E0,3.581022E0,0E0,0E0,0E0,0E0,0E0,0E0],"parents":[2147483647,0,0,1,1,2,2,3,3,5,5,6,6],"right_children":[2,4,6,8,-1,10,12,-1,-1,-1,-1,-1,-1],"split_conditions":[6.422896E-1,4E0,7.02812E-1,4.0801422E2,4.1797668E-2,8.223561E2,4.6286282E2,-4.695661E-2,-1.0914614E-2,3.3436954E-2,-7.408879E-3,9.239716E-3,-5.922442E-3],"split_indices":[2,5,2,0,0,0,0,0,0,0,0,0,0],"split_type":[0,0,0,0,0,0,0,0,0,0,0,0,0],"sum_hessian":[2.6550604E2,4.289238E1,2.2261366E2,4.0936165E1,1.9562137E0,1.6664022E1,2.0594963E2,5.9768534E0,3.4959312E1,1.2665801E1,3.9982219E0,5.093141E1,1.5501822E2],"tree_param":{"num_deleted":"0","num_feature":"6","num_nodes":"13","size_leaf_vector":"1"}},{"base_weights":[4.530539E-2,3.2166988E-2,9.6172994E-1,1.9613419E-2,5.8970046E-1,5.89401E-2,1.4526925E-2,2.772916E-4,2.633878E-2,4.3860618E-2,-1.2935946E-2],"categories":[],"categories_nodes":[],"categories_segments":[],"categories_sizes":[],"default_left":[0,0,0,0,0,0,0,0,0,0,0],"id":81,"left_children":[1,3,5,7,9,-1,-1,-1,-1,-1,-1],"loss_changes":[3.1802638E0,1.8359563E0,2.0168543E-1,1.8462813E0,1.6364536E0,0E0,0E0,0E0,0E0,0E0,0E0],"parents":[2147483647,0,0,1,1,2,2,3,3,4,4],"right_children":[2,4,6,8,10,-1,-1,-1,-1,-1,-1],"split_conditions":[1.51E3,4.511272E-2,3E0,8.713974E7,7.8947574E-2,5.89401E-2,1.4526925E-2,2.772916E-4,2.633878E-2,4.3860618E-2,-1.2935946E-2],"split_indices":[0,3,4,1,3,0,0,0,0,0,0],"split_type":[0,0,0,0,0,0,0,0,0,0,0],"sum_hessian":[2.6570312E2,2.6296817E2,2.7349653E0,2.5818988E2,4.7782917E0,1.4951361E0,1.2398292E0,2.5220517E2,5.9846935E0,3.5435264E0,1.2347652E0],"tree_param":{"num_deleted":"0","num_feature":"6","num_nodes":"11","size_leaf_vector":"1"}},{"base_weights":[-1.5769316E-2,-3.196264E-2,8.154685E-1,-4.047424E-2,5.5120665E-1,1.0397989E0,1.4779752E-3,-1.2957723E-3,-1.3621119E-2,3.6603697E-2,4.108695E-3,1.426735E-2,6.529734E-2],"categories":[],"categories_nodes":[],"categories_segments":[],"categories_sizes":[],"default_left":[0,0,0,0,0,0,0,0,0,0,0,0,0],"id":82,"left_children":[1,3,5,7,9,11,-1,-1,-1,-1,-1,-1,-1],"loss_changes":[3.686927E0,1.3512719E0,8.9216304E-1,8.871937E-1,2.7237916E-1,4.3918276E-1,0E0,0E0,0E0,0E0,0E0,0E0,0E0],"parents":[2147483647,0,0,1,1,2,2,3,3,4,4,5,5],"right_children":[2,4,6,8,10,12,-1,-1,-1,-1,-1,-1,-1],"split_conditions":[5E0,4E0,1.7154629E0,2E0,4.9397743E-1,6.2497556E-3,1.4779752E-3,-1.2957723E-3,-1.3621119E-2,3.6603697E-2,4.108695E-3,1.426735E-2,6.529734E-2],"split_indices":[4,5,2,5,2,3,0,0,0,0,0,0,0],"split_type":[0,0,0,0,0,0,0,0,0,0,0,0,0],"sum_hessian":[2.709707E2,2.6673596E2,4.2347283E0,2.6381607E2,2.9199104E0,3.0430624E0,1.191666E0,2.4928105E2,1.4535009E1,1.7025582E0,1.2173523E0,1.3339214E0,1.709141E0],"tree_param":{"num_deleted":"0","num_feature":"6","num_nodes":"13","size_leaf_vector":"1"}},{"base_weights":[-9.2369056E-4,-1.0975176E-2,4.3163158E-2,2.4151255E-1,-4.06141E-2,-6.642723E-3,2.1192787E-2,-2.349355E-2,-3.038775E-4],"categories":[],"categories_nodes":[],"categories_segments":[],"categories_sizes":[],"default_left":[0,0,0,0,0,0,0,0,0],"id":83,"left_children":[1,3,-1,5,7,-1,-1,-1,-1],"loss_changes":[2.3947237E0,2.0485096E0,0E0,2.0198305E0,3.6242929E0,0E0,0E0,0E0,0E0],"parents":[2147483647,0,0,1,1,3,3,4,4],"right_children":[2,4,-1,6,8,-1,-1,-1,-1],"split_conditions":[4E0,-2.0086074E-2,4.3163158E-2,-3.0741211E-2,3.0123676E2,-6.642723E-3,2.1192787E-2,-2.349355E-2,-3.038775E-4],"split_indices":[5,3,0,3,0,0,0,0,0],"split_type":[0,0,0,0,0,0,0,0,0],"sum_hessian":[2.735971E2,2.714274E2,2.169712E0,2.776392E1,2.4366347E2,9.182607E0,1.8581314E1,1.720585E1,2.2645761E2],"tree_param":{"num_deleted":"0","num_feature":"6","num_nodes":"9","size_leaf_vector":"1"}},{"base_weights":[-4.451307E-2,-4.626164E-1,-2.7365683E-2,-6.8684554E-1,1.5400875E-1,-1.0969571E-1,6.924085E-2,-4.2747527E-2,-2.0146577E-2,3.7770334E-4,1.1042819E-2,3.199717E-2,-8.659029E-3,-3.1353172E-2,4.543975E-3],"categories":[],"categories_nodes":[],"categories_segments":[],"categories_sizes":[],"default_left":[0,0,0,0,0,0,0,0,0,0,0,0,0,0,0],"id":84,"left_children":[1,3,5,7,9,11,13,-1,-1,-1,-1,-1,-1,-1,-1],"loss_changes":[1.8861301E0,1.5397573E0,2.039554E0,2.724719E-2,3.3404954E-2,6.693413E0,1.8373055E0,0E0,0E0,0E0,0E0,0E0,0E0,0E0,0E0],"parents":[2147483647,0,0,1,1,2,2,3,3,4,4,5,5,6,6],"right_children":[2,4,6,8,10,12,14,-1,-1,-1,-1,-1,-1,-1,-1],"split_conditions":[2.675691E2,4E0,0E0,7.6696855E-1,2.415399E2,3.6320087E2,2.8617493E2,-4.2747527E-2,-2.0146577E-2,3.7770334E-4,1.1042819E-2,3.199717E-2,-8.659029E-3,-3.1353172E-2,4.543975E-3],"split_indices":[0,4,5,2,0,0,0,0,0,0,0,0,0,0,0],"split_type":[0,0,0,0,0,0,0,0,0,0,0,0,0,0,0],"sum_hessian":[2.638472E2,9.371197E0,2.54476E2,6.7886853E0,2.5825114E0,1.3731656E2,1.1715943E2,3.0006845E0,3.788001E0,1.158152E0,1.4243596E0,1.0012084E1,1.2730448E2,2.6878843E0,1.1447154E2],"tree_param":{"num_deleted":"0","num_feature":"6","num_nodes":"15","size_leaf_vector":"1"}},{"base_weights":[1.2576746E-2,-6.0910672E-2,2.14595E-1,2.3612877E-2,-2.280233E-1,-3.2993037E-2,2.4892332E-1,-3.5916874E-4,4.8055705E-2,-1.3268985E-2,4.2878065E-2,3.118299E-2,5.3901463E-3],"categories":[],"categories_nodes":[],"categories_segments":[],"categories_sizes":[],"default_left":[0,0,0,0,0,0,0,0,0,0,0,0,0],"id":85,"left_children":[1,3,5,7,9,-1,11,-1,-1,-1,-1,-1,-1],